GIS
1
0.0
17
null
方式
核心成分
限定
连接依存
受事
状中结构
定中关系
右附加关系
介宾关系
核心关系
动宾关系
兼语
介宾
动补结构
主谓关系
并列关系
128
2057 0
6 0 1
1 0 1 2 6 9 10 11 12 13 14 15
1 0 1 4 5 6 8 9 11 12 14 15 16
5 0 1 5
1 0 1 5 7 8 10
2 0 1 5 7 8 15 16
1 0 1 5 7 10 15 16
4 0 1 6 7 10 15
1 0 1 7 8 10 15
8 0 2
1 0 2 3 7 10 11 14 15 16
1 0 2 4 6 7 8 9 11 12 14
2 0 2 7 8 10 11 12 14
1 0 2 7 10 11 12 14 16
2 0 2 8 9 10 11 12 13 14 16
6 0 2 10
22 0 3
1 0 3 4 6 7 8 10 11 16
1 0 3 4 7 9 10 11 13 14 15
1 0 3 4 7 9 11 12 14 16
2 0 3 5 8 9 10 11 14 16
2 0 3 6 7
1 0 3 6 7 8 9 11 14 15 16
2 0 3 6 7 9 11 14 15
1 0 3 7 9 10 11 14 15 16
23 0 4
1 0 4 5 7 8 9 10 11 13 14 15 16
1 0 4 6 7 8 9 10 11 13 14 15 16
1 0 4 6 8 11 14 16
1 0 4 8 14
2 0 4 11 14
1 0 4 11 14 15
7 0 5
2 0 5 9 10 11 14
8 0 6
1 0 6 7 9 11 14 15
1 0 6 7 10 11
2 0 6 7 10 11 16
1 0 6 7 11 14 15
2 0 6 7 11 15
2 0 6 8 9 10 11 13 14 15
1 0 6 8 9 10 11 15
4 0 6 8 11
5 0 6 8 11 15
4 0 6 9 11 14 15
1 0 6 9 12 14
1 0 6 10 11 16
3 0 6 11
1 0 6 11 14 15
1 0 6 12 14
1 0 6 16
55 0 7
3 0 7 8
1 0 7 8 10
1 0 7 8 11
1 0 7 8 11 14
1 0 7 8 15
4 0 7 9 10 11 15
2 0 7 9 11 14
1 0 7 9 11 15 16
6 0 7 10
1 0 7 10 11
2 0 7 10 15 16
10 0 7 11
1 0 7 11 15
2 0 7 14
1 0 7 15
2 0 7 15 16
67 0 8
1 0 8 9 10 11 13 14
2 0 8 9 11 12 13 14 16
5 0 8 10
2 0 8 11
3 0 8 11 14
1 0 8 15
12 0 9
2 0 9 10 11 13
2 0 9 10 11 13 15
1 0 9 10 11 13 15 16
1 0 9 11 13 15
5 0 9 11 14
3 0 9 12
4 0 9 13
1 0 9 13 15
55 0 10
3 0 10 11
1 0 10 11 14
1 0 10 11 16
1 0 10 14
2 0 10 14 15 16
2 0 10 15
1 0 10 16
55 0 11
8 0 11 12
1 0 11 12 14 16
4 0 11 14
1 0 11 14 15
1 0 11 14 15 16
3 0 11 15
1 0 11 16
8 0 12
3 0 14
3 0 14 16
14 0 15
1 0 15 16
9 0 16
6 1
5 2
1 2 10
12 3
10 4
6 5
36 6
28 7
1 7 15
23 8
8 9
6 9 13
40 10
78 11
8 11 14
1 11 16
6 12
1 13
10 14
7 15
3 16
2891
##核心##→亮度@调到
吸顶灯→开启@卧室
v→v@m
分钟@打开→客厅
把j-2
v→v@n
v→v@r
把→##空白##@##核心##
v→v@v
吸顶灯@启动→卧室
客厅→吸顶灯@开
坚决→贿赂
未##数→客厅-3
请→你@关掉
##核心##→经济-6
n→m-4
n→m-5
卧室@的→把
你→调整@卧室
你@调整→##核心##
##空白##@##核心##→打开
到@未##数→卧室
亮度→客厅
的→吸顶灯@打开
调到→##核心##@卧室
半小时i2
延迟→分钟
打开@客厅→半小时
启动→客厅@的
r@v→root
n→m-2
红色→的
n→m-3
##核心##@把→##核心##
led灯@颜色→调到
颜色→的
贿赂→等-1
延迟→打开-2
开启@卧室→你
ad→n
吸顶灯→调到-2
延迟→未##数
延迟@未##数→延迟
vn→ad
等→坚决4
延迟→分钟-2
犯罪→##核心##7
吸顶灯→亮度@到
##核心##@坚决→贪污
到@未##数→##核心##
红色→客厅5
半小时j0
nulli-1
你→吸顶灯@亮度
客厅@的→吸顶灯
吸顶灯@亮度→请
贿赂→惩治
吸顶灯→调到@未##数
p→u@n
卧室→请3
的@吸顶灯→延迟
的→吸顶灯@开
udeng→vn-2
led灯→红色
调到→吸顶灯
客厅→延迟
调到@红色→的
请→启动@客厅
打开→把4
##核心##@延迟→半小时
颜色@调到→客厅
的→调亮-2
客厅@的→颜色
n→ad@v
开启→吸顶灯
##核心##→贪污@贿赂
的→开-2
##空白##@##核心##→调到
你@调整→未##数
开→卧室
root→udeng@n
你@开启→卧室
你→你@开启
惩治→经济
未##数→打开@客厅
到→卧室4
m→v8
m→v6
##核心##→##核心##@延迟
的@吸顶灯→未##数
m→v2
关闭→把
r→v-1
关闭→的-2
r→v-6
吸顶灯→关闭@卧室
亮度→的@吸顶灯
你@开启→你
颜色→led灯1
客厅→吸顶灯@调亮
未##数→调整@卧室
开启→的
q→m1
##核心##→贪污-3
关掉→的@吸顶灯
吸顶灯→卧室1
##核心##@关掉→客厅
的→半小时
打开→的
亮度→##核心##7
亮度→##核心##5
吸顶灯→卧室2
vn→udeng2
udeng→n
你@打开→你
坚决@惩治→等
调整→亮度
v→n-2
的→调到
v→n-1
n@vn→udeng
##核心##→到
惩治→贪污@贿赂
亮度→##核心##3
v→root@n
v→n-6
v→n-5
v→n-4
卧室→吸顶灯@打开
v→root@p
的→的@吸顶灯
未##数→客厅5
未##数→客厅4
未##数→客厅3
##核心##→你@开启
分钟@打开→的
贪污→坚决2
未##数→把
请→卧室-3
调整→卧室
n→udeng
p→m-6
请→启动-2
v@m→p
经济→贪污3
客厅→分钟2
v@m→r
把@客厅→红色
##空白##@##核心##→红色
经济→##核心##6
v@m→u
你@调整→你
调到→红色-1
##空白##@##核心##→贿赂
贪污j-1
客厅→把1
惩治→犯罪-5
分钟→延迟
##核心##→调整
贪污j-2
亮度@到→卧室
半小时→打开
惩治→坚决1
n→root6
关闭→关闭@卧室
n→root7
qj-2
你→客厅
延迟→未##数@分钟
未##数→吸顶灯3
未##数→吸顶灯2
关掉→关掉@卧室
n→root1
n→root2
到→##核心##@请
n→root3
贿赂@等→犯罪
n→root5
u→m4
pi1
把@客厅→##核心##
吸顶灯→开@卧室
调到@未##数→##核心##
##核心##→把
惩治→贿赂
亮度→你5
未##数→你7
关闭→卧室
开→的@吸顶灯
m→n@n
##核心##@把→红色
打开→吸顶灯
亮度→请
打开@客厅→请
m→n@u
惩治→惩治@贪污
卧室@的→到
调整→的@吸顶灯
贿赂→经济
的→的@led灯
调到→颜色1
亮度→##空白##@##核心##
颜色→led灯
r→u@n
客厅→调到@未##数
开→请@你
的→延迟5
的→吸顶灯@亮度
udeng→ad@v
的→延迟4
调到→未##数
坚决→经济
你→到@未##数
吸顶灯@亮度→##核心##
##空白##@##核心##→到
##核心##→##核心##@关掉
你@启动→吸顶灯
打开j-2
##核心##→##核心##@请
调整→吸顶灯-3
开启→的-2
未##数→你@调整
你→你@启动
犯罪→##核心##
启动→启动@卧室
调到→卧室3
吸顶灯@关闭→把
调到→卧室4
延迟→半小时@打开
v→m@q
启动→把@卧室
到@未##数→亮度
v→n@udeng
启动→客厅3
分钟→的-3
开→吸顶灯-3
q→v2
##核心##→你@启动
等→经济-1
v@m→n
未##数→把@客厅
调整→的
亮度j2
的→启动-2
关闭→吸顶灯
调整@卧室→调整
vn→n
颜色@调到→颜色
客厅→调到@红色
客厅@吸顶灯→客厅
v→r-1
你@调整→亮度
root→udeng
##空白##@##核心##→把
v→n@n
v→n@u
root→p-1
的→led灯
卧室→调到-3
卧室→调到-4
请→关掉
##核心##→卧室@的
关掉@卧室→的
的→开启@客厅
未##数→客厅
吸顶灯→的
吸顶灯@调亮→客厅
坚决→##核心##
请→打开-2
启动→把
未##数→吸顶灯@亮度
调整→到@未##数
led灯→客厅@的
吸顶灯@关闭→卧室
亮度→请@你
吸顶灯→你@调整
##核心##→经济
##核心##@把→led灯
把@客厅→把
u→v4
卧室→##核心##1
r→v@m
卧室→##核心##2
卧室→##核心##4
r→v@n
u→v5
n→udeng-1
卧室→把
开→吸顶灯
##核心##@请→调整
打开→未##数2
你@调整→卧室
客厅→未##数@分钟
客厅→延迟3
卧室→你@打开
你→开启@卧室
n→v-2
未##数→你
客厅→延迟4
n→v-3
你@启动→卧室
n→v-4
惩治@贪污→贿赂
你→亮度-5
客厅→颜色@调到
半小时@打开→吸顶灯
的→调亮@未##数
调整→亮度-4
##空白##@##核心##→贪污
吸顶灯→未##数
客厅→半小时
u→p2
把→的@吸顶灯
请@你→未##数
经济j2
经济j1
##空白##@##核心##→启动
经济j0
启动@卧室→请
分钟→未##数
延迟@未##数→吸顶灯
到@未##数→请
##核心##→惩治
你@启动→你
n→m@q
##核心##@卧室→未##数
##核心##→半小时-2
卧室→卧室@的
u→n3
开启@客厅→的
n→ad
r→n-2
贪污→##核心##
##核心##@打开→客厅
r→n-5
r→n-4
##核心##→##核心##@开
调整→吸顶灯
等→##空白##@##核心##
亮度→客厅@的
开启→吸顶灯1
u→r3
经济→##空白##@##核心##
未##数→##核心##@延迟
udeng→root5
##核心##→客厅@吸顶灯
关闭@客厅→##核心##
调亮@未##数→客厅
颜色→调到@红色
吸顶灯→未##数@分钟
ad@v→udeng
打开@卧室→的
犯罪j1
请@你→开
犯罪j2
null@root→ad
亮度@调到→客厅
打开→未##数
打开@客厅→延迟
u→q3
亮度→你
惩治@贪污→经济
未##数@分钟→##核心##
到→吸顶灯
等@经济→贿赂
卧室→调整1
未##数@分钟→吸顶灯
分钟j-2
的@led灯→调到
关掉@卧室→吸顶灯
半小时@打开→的
等@经济→惩治
犯罪→贪污4
吸顶灯→打开-1
n→p1
n→p6
v@v→ad
你@开→吸顶灯
贿赂→等@经济
开启→卧室
##核心##→你@打开
n@vn→root
经济→贪污@贿赂
吸顶灯@启动→吸顶灯
未##数→##核心##@请
的j0
m→root@v
把→##核心##
m→root@p
m→root@n
##核心##→客厅-4
请@你→客厅
##核心##→客厅-5
吸顶灯@启动→的
卧室→调到@未##数
颜色→颜色@调到
udeng→root@ad
请→请@你
启动→卧室
开→把
客厅→延迟@半小时
卧室@吸顶灯→##核心##
等→犯罪
n→r2
vn→udeng@n
n→r4
n→r5
延迟→延迟@未##数
##空白##@##核心##→坚决
未##数→的-4
##核心##→客厅-2
的→延迟@半小时
##核心##→客厅-1
吸顶灯→打开@客厅
惩治@贪污→惩治
##核心##→关掉@客厅
亮度@调到→未##数
经济→坚决5
等→##核心##@坚决
n→q2
卧室@的→调到
启动j-2
n→q4
请→的
调亮@未##数→吸顶灯
吸顶灯@亮度→客厅
##空白##@##核心##→亮度
##核心##@请→未##数
客厅→开-3
##核心##@把→的
##核心##→的-5
##核心##→的-6
##核心##→的-2
##核心##→的-3
客厅→亮度-3
吸顶灯@调亮→未##数
打开→请@你
ad@v→vn
吸顶灯→请@你
客厅→调亮-3
卧室→请@你
调整→的-2
客厅→##核心##@请
vn→root@ad
延迟→吸顶灯-6
的→亮度
延迟→吸顶灯-5
把→led灯
root@n→m
吸顶灯→##核心##3
吸顶灯→调整3
吸顶灯→##核心##@延迟
延迟→半小时
卧室@的→亮度
吸顶灯→##核心##7
吸顶灯→##核心##6
调亮→的
到→调整@卧室
把→客厅@的
请→未##数
调整@卧室→你
惩治→经济-4
v@n→vn
你@关掉→的
udeng@n→udeng
root@n→u
客厅→##核心##@延迟
##空白##@##核心##→开启
root→root@ad
贪污→坚决@惩治
关闭@卧室→的
吸顶灯→调到
##核心##→关掉-1
##核心##→贿赂
##核心##→关掉-3
吸顶灯@开→的
##核心##→未##数-7
客厅→未##数-3
##核心##→未##数-5
##核心##→未##数-4
惩治→等-3
经济→等
##核心##→未##数-2
卧室→亮度@到
客厅→未##数-4
n→n1
客厅→未##数-5
延迟@未##数→客厅
n→n2
n→n3
n→n4
n→n5
##空白##@##核心##→卧室
##核心##→未##数-9
惩治→坚决
吸顶灯@打开→卧室
调整→到-5
延迟@未##数→##核心##
的→请
到→请
客厅→调亮@未##数
吸顶灯@打开→把
##核心##@请→吸顶灯
的→关闭-2
调亮→未##数
客厅→调亮-2
##核心##@卧室→##核心##
##核心##→红色
n→m3
n→m5
卧室→到
led灯→调到
吸顶灯@开启→的
红色→颜色
的@吸顶灯→分钟
开@卧室→你
贿赂@等→贿赂
root→r@v
ad→root
贪污@贿赂→##核心##
udeng→udeng@n
##核心##@请→客厅
坚决→贪污@贿赂
关闭→把@卧室
##空白##@##核心##→led灯
你→打开
吸顶灯→##核心##@客厅
卧室→你@开
##核心##@客厅→未##数
惩治@贪污→坚决
开启→请@你
延迟@半小时→##核心##
uj0
关掉@客厅→的
null@root→u
null@root→v
null@root→q
null@root→r
你→客厅@的
null@root→p
null@root→m
##核心##→到-8
null@root→n
坚决→经济@犯罪
客厅@的→##核心##
v→ad
##核心##→开@卧室
null@root→vn
的→你
延迟@未##数→的
你→你@开
到→你6
v→udeng
打开→的2
打开→吸顶灯1
的→请@你
关闭→客厅-1
##核心##@把→卧室
led灯j0
led灯j1
亮度→到@未##数
##核心##→你@调整
##核心##→调到
调到@红色→把
关掉→卧室
客厅→启动-3
##核心##→##核心##@关闭
你@关掉→卧室
到→未##数-1
客厅→的@led灯
调到→亮度1
调整@卧室→到
##核心##→打开
客厅→亮度@调到
##核心##@延迟→客厅
##核心##→吸顶灯@开
n@n→root
v→root8
udengj0
udengj1
惩治→贿赂@等
v→root3
贿赂@等→经济
root→n@vn
打开→的-2
吸顶灯@调亮→的
关掉→的
##核心##→吸顶灯@关闭
客厅→分钟
坚决→贿赂@等
等@经济→坚决
客厅→##核心##
贿赂→坚决3
吸顶灯→关掉@卧室
v→m-2
v→m-1
请→打开@客厅
udeng→ad4
v→m-6
犯罪→坚决
v→m-8
贿赂→坚决
##核心##@关闭→吸顶灯
n→udeng@n
开启→把
分钟→客厅
调到→调到@红色
客厅@的→请
n→v2
卧室@的→你
n→v6
半小时→客厅@的
客厅→调亮
m@q→n
m@q→m
亮度@到→的
客厅→请3
调亮→##核心##3
卧室→调到
你→启动@卧室
等→##核心##5
m→n-3
颜色→调到
n→u1
r→u-3
n→u2
n→u4
把@客厅→启动
开→吸顶灯1
m→n-5
惩治→贪污
惩治→等@经济
你@调整→吸顶灯
分钟→##核心##@延迟
调到→卧室@的
##核心##→吸顶灯@调亮
调到@红色→##核心##
调亮→的2
分钟→客厅-2
开→卧室@的
##核心##→贿赂@等
未##数@分钟→未##数
的→分钟
调整@卧室→##核心##
请i1
root→v@r
root→v@v
root→v@m
root→v@n
打开→把
客厅→##核心##@把
m@q→u
吸顶灯→卧室
##核心##→开
客厅→led灯
##核心##→打开@客厅
打开→打开@卧室
到→吸顶灯2
u@n→m
u→root2
u→root6
u→root5
u→root3
卧室→吸顶灯@关闭
qj2
qj1
调到→的@led灯
ad→n@vn
贪污→惩治
吸顶灯→你@关掉
q→v@m
q→v@n
吸顶灯@关闭→的
打开@客厅→未##数
的→##空白##@##核心##
启动→卧室-1
等→贪污@贿赂
的→请4
的→调整2
到→未##数
你j0
u@n→r
贿赂→等
u@n→q
你→你@关掉
u@n→u
颜色→客厅@的
启动→你
调整→请@你
未##数→##核心##
犯罪→##核心##@坚决
##核心##→吸顶灯
你i2
##核心##→亮度
请@你→调整
开@卧室→##核心##
##核心##→你-2
坚决→等@经济
##核心##→关闭@客厅
把→卧室-1
亮度@调到→亮度
的→调亮
的→关掉@客厅
##核心##→坚决
##核心##→把-1
请→的@吸顶灯
把i1
##核心##→你
p→n
u→n@n
请→的-4
p→m
q@v→v
rooti0
q@v→u
客厅→你
调到→客厅@的
p→u
关闭j-1
q@v→n
关闭j-2
q@v→m
到→##核心##
调到→红色
把→led灯-3
q@v→q
##核心##→led灯@颜色
到→##核心##8
请→吸顶灯-5
##核心##@关闭→的
关掉→的-2
##核心##→吸顶灯-3
##核心##→吸顶灯-4
##核心##@打开→卧室
##核心##→吸顶灯-6
##核心##→吸顶灯-7
udeng@n→n
请→到-7
半小时@打开→客厅
把@卧室→调到
root@v→r
吸顶灯@亮度→吸顶灯
root@v→u
##核心##→吸顶灯-2
vn→root7
v→q-2
root→n@udeng
vn→n@udeng
root@v→m
红色→把6
root@v→q
##空白##@##核心##→的
关闭→##核心##@把
贿赂@等→##核心##
吸顶灯→半小时4
把@卧室→打开
把@卧室→未##数
##核心##→卧室@吸顶灯
udeng@n→v
犯罪→等
亮度→##核心##
把→未##数-6
q→root3
##核心##→关闭-5
启动@卧室→你
吸顶灯→延迟@未##数
调整→吸顶灯@亮度
p→root1
##核心##→关闭-1
经济→惩治@贪污
未##数→吸顶灯
##核心##@关闭→卧室
坚决→贪污
客厅→开
关掉@客厅→吸顶灯
卧室→亮度
调到→未##数-1
请→亮度@到
##核心##→##核心##@启动
客厅@的→红色
v@n→ad
##核心##@客厅→的
亮度→客厅3
客厅→亮度
到j-1
##空白##@##核心##→惩治
m→r@v
贪污→贿赂
##核心##→你@开
v→q1
v→p5
v→p4
卧室→亮度-3
卧室→亮度-2
吸顶灯→调整@卧室
客厅@的→未##数
开启→开启@卧室
##核心##@请→的
你→开
r→root2
##核心##→##核心##@开启
你@开→你
n→u-3
n→u-1
##核心##→把@客厅
把@客厅→打开
关掉→客厅@的
##核心##→##核心##@卧室
惩治→贿赂-2
##核心##→##核心##@把
vn→udeng
mj0
亮度@到→未##数
调亮@未##数→的
##核心##→调到@红色
##空白##@##核心##→吸顶灯
##核心##→吸顶灯@启动
调整→卧室-1
开启→的2
你→亮度@到
##核心##@把→吸顶灯
请→启动
到@未##数→你
udeng→null@root
##核心##→启动
颜色→红色-2
的→打开-2
打开→客厅
开启@客厅→##核心##
##核心##→调亮-3
##核心##→调亮-4
颜色@调到→led灯
分钟→未##数1
吸顶灯→调亮@未##数
等→坚决
关闭→的2
打开@客厅→分钟
v→r6
卧室→吸顶灯@亮度
null@root→udeng
##核心##→贪污
坚决→惩治@贪污
关闭j2
贪污@贿赂→等
请→你-1
m→root
你→吸顶灯
ad→n@udeng
n→p@n
v→r1
请@你→##核心##
调到→卧室
v@v→udeng
##核心##→等@经济
的→关闭@卧室
请→吸顶灯
亮度@到→吸顶灯
v→v-5
吸顶灯→客厅@的
的→调到-3
##核心##@开→吸顶灯
吸顶灯→半小时
v→v-7
贪污→经济
把→把@卧室
##空白##@##核心##→经济
吸顶灯→开-1
请→开启-2
未##数→请
n@udeng→vn
客厅→请@你
的→##核心##@请
root→root@v
你@关掉→吸顶灯
贪污@贿赂→犯罪
##核心##→坚决@惩治
把@客厅→调到
root→root@p
卧室→你
root→root@n
##核心##→亮度-5
惩治@贪污→等
##核心##→亮度-3
调整→调整@卧室
##核心##→##核心##@坚决
##核心##→亮度-7
分钟→打开@客厅
未##数→延迟
未##数→卧室@的
把→颜色
请→开启
ad→vn
犯罪→等@经济
启动@客厅→你
启动@客厅→##核心##
吸顶灯→启动@卧室
亮度→未##数
v→n4
v→n3
红色→##核心##
v→n2
亮度→调到@未##数
卧室→吸顶灯@开启
请→调整@卧室
红色→led灯3
调亮→的@吸顶灯
打开→客厅@的
惩治→犯罪
p→null@root
##核心##→开启
v→n1
客厅→请
红色→led灯
请→卧室
打开→你1
v→m2
吸顶灯@亮度→的
vn→ad6
##核心##→卧室
v→v-2
v→v-1
开启→客厅-1
r→m-7
root→n@n
到→你
的@吸顶灯→半小时
把→颜色-4
调到@红色→颜色
m→v@r
坚决→贿赂-3
请→你@开
##核心##@把→亮度
p→u-2
调亮→客厅
root→n@u
坚决→##空白##@##核心##
##核心##→led灯-4
root→n@v
红色→##核心##@把
分钟→延迟2
的→未##数
##核心##→惩治@贪污
你→调整
分钟→吸顶灯-4
亮度→请6
亮度→把@卧室
未##数→卧室@吸顶灯
你@打开→客厅
的@led灯→的
##核心##→分钟
q→n@u
把→客厅
经济@犯罪→##核心##
调到@未##数→卧室
##核心##→启动@客厅
未##数→##核心##@卧室
##核心##@开启→卧室
p→p@n
r→null@root
把@客厅→亮度
请→亮度
打开@卧室→请
开→的
##空白##@##核心##→调整
p→root
未##数j0
吸顶灯→分钟
你→到-6
led灯@颜色→##核心##
经济→等1
开→客厅@的
请→吸顶灯@亮度
未##数→把6
的→颜色-2
m→v@n
客厅@的→调到
##核心##@坚决→犯罪
root@ad→n
关闭→卧室-1
##核心##@启动→卧室
v→u3
v→u2
卧室@的→调整
的→你@启动
把→未##数
##核心##→开启@客厅
等@经济→贪污
犯罪→贪污
##核心##@开启→吸顶灯
吸顶灯→开启-1
未##数→卧室4
未##数→卧室5
##核心##→贿赂-4
吸顶灯→卧室@的
吸顶灯→延迟6
贿赂@等→坚决
卧室→你@调整
你→卧室@的
半小时→客厅
吸顶灯→延迟5
启动→##核心##@把
请→客厅@的
半小时→##核心##
v@n→udeng
关掉→吸顶灯-3
卧室→吸顶灯@启动
客厅@的→你
的→到@未##数
卧室@的→请
调整j1
##核心##→犯罪-7
坚决→等
n→vn-3
打开→卧室3
半小时→打开-1
贿赂→犯罪
客厅@吸顶灯→未##数
打开→卧室@的
开启→卧室-1
把@客厅→开
客厅@的→开
led灯@颜色→红色
请→关掉@卧室
v→root@ad
你@开→##核心##
吸顶灯→未##数-3
吸顶灯→未##数-2
v→v3
v→v7
关掉→卧室@的
调到→亮度
吸顶灯@开启→把
你→关掉-1
未##数→客厅@的
调到@未##数→亮度
u→n-1
u→n-2
##核心##→犯罪
延迟@半小时→吸顶灯
吸顶灯j1
##核心##→##核心##@打开
未##数→##空白##@##核心##
的→吸顶灯
p@n→u
u→n-4
p@n→v
把→吸顶灯@亮度
v→udeng-2
v→udeng-3
贪污→##空白##@##核心##
客厅@的→亮度
开启→客厅
坚决@惩治→经济
##核心##@启动→的
请@你→打开
ad→n-5
启动→的2
ad→n-3
你→的-3
亮度→把@客厅
亮度→卧室@吸顶灯
##核心##→未##数
把@卧室→把
坚决→犯罪-6
调亮@未##数→##核心##
你→打开@卧室
颜色→的2
吸顶灯@开启→吸顶灯
调到@未##数→客厅
u→r
u→q
关闭→关闭@客厅
请→你
调亮→##核心##@客厅
u→m
的@led灯→客厅
u→p
未##数→亮度2
亮度→卧室@的
请→开启@卧室
root→q@v
##核心##@延迟→吸顶灯
你→开启-1
v@r→root
调亮j-1
调到@红色→客厅
未##数→的@吸顶灯
关闭→客厅
关掉→吸顶灯
p@n→p
请→卧室@的
p@n→m
经济→惩治
把→的-2
的→未##数4
你→未##数
客厅→把
##核心##→启动@卧室
半小时→半小时@打开
未##数→分钟@打开
root→v-1
root→v-2
root→v-5
把@卧室→启动
root→v-6
root→v-3
root→v-4
贿赂→经济@犯罪
关掉@卧室→请
惩治→经济@犯罪
未##数→亮度
##核心##@卧室→调到
吸顶灯@开→客厅
卧室→的-1
吸顶灯→延迟
root→v-8
未##数→把@卧室
亮度→##核心##@请
的→把2
客厅→调到-4
关闭@卧室→##核心##
##核心##→请@你
坚决i1
坚决@惩治→贿赂
##核心##→led灯
##核心##@请→关掉
启动→启动@客厅
udeng@n→ad
ad→v@v
坚决j0
调整→你
你→调整-1
##核心##→关闭
ad→v@n
红色→的@led灯
##核心##→延迟@未##数
延迟@未##数→打开
红色→##空白##@##核心##
的→未##数-3
的→未##数-4
客厅@吸顶灯→调亮
到→到@未##数
未##数→请@你
ri2
红色→##核心##7
##核心##→分钟-3
请→打开
延迟→未##数-1
##核心##→调整-3
开@卧室→请
##核心##→调亮
延迟→客厅
##核心##→吸顶灯@打开
rj0
##核心##→经济@犯罪
惩治@贪污→##核心##
n→root@n
led灯→调到-2
经济→贿赂
犯罪→贿赂3
把@卧室→关闭
n@n→m
root@n→root
n@n→r
n@n→u
请→亮度-6
坚决→贪污-2
等→经济
n@vn→n
到@未##数→的
开启→你
贿赂→坚决@惩治
##核心##→吸顶灯@开启
吸顶灯→开启@客厅
吸顶灯@启动→客厅
开启→的@吸顶灯
##核心##→请-1
未##数→卧室
经济@犯罪→等
卧室→调整
请@你→亮度
吸顶灯→分钟4
u→m@q
亮度→卧室
udeng@n→root
你@打开→吸顶灯
请→关掉-2
##核心##@卧室→亮度
##空白##@##核心##→延迟
q→n
q→m
打开→卧室
客厅→调到
的@吸顶灯→调到
亮度→调整@卧室
q→u
把→亮度
的→你@开
开→你1
分钟j2
红色→把@客厅
分钟j1
root→u
root→u@n
启动→客厅-1
root→v
##核心##→坚决-1
贪污→惩治1
root→p
root→q
root→r
贪污→经济-3
你@启动→客厅
调到→客厅
红色→的4
卧室→关闭-3
半小时→的-3
的→你@调整
打开→半小时1
你→的@吸顶灯
##核心##@延迟→未##数
半小时j-2
##核心##→颜色-5
的→把
调整→未##数
坚决→经济-5
打开→半小时
led灯→##核心##
打开@客厅→吸顶灯
开→客厅
吸顶灯→亮度@调到
##核心##→颜色@调到
你→##核心##
等→贿赂
##核心##@开→的
##核心##→吸顶灯@亮度
调到→##核心##@把
##核心##→等
调亮j2
root→m
root→n
的→到
未##数→调整6
##核心##→调亮@未##数
关闭→的@吸顶灯
亮度@调到→把
经济@犯罪→贪污
半小时→##空白##@##核心##
贪污→贪污@贿赂
经济→贿赂@等
打开→你
卧室→请
吸顶灯→启动@客厅
亮度→吸顶灯1
未##数→客厅@吸顶灯
亮度@到→##核心##
root→ad-1
的→led灯@颜色
调整→你1
贪污→坚决
udeng→n@vn
未##数→##核心##@把
的→延迟
打开@卧室→##核心##
半小时→##核心##2
你@开→卧室
客厅→未##数3
led灯@颜色→led灯
##核心##→红色-7
n@udeng→ad
分钟@打开→分钟
吸顶灯→关闭-1
q→u@n
请→你@调整
分钟→的@吸顶灯
延迟→吸顶灯
打开→##核心##@把
你→未##数-7
开→##核心##@把
##核心##→调到@未##数
等→##核心##
等→贿赂1
调到→调到@未##数
延迟→半小时-1
把→的@led灯
##核心##→等-5
客厅→未##数
亮度@调到→卧室
调整→##核心##3
##核心##→关掉
##核心##@坚决→##核心##
ad→v-2
的@吸顶灯→的
把@卧室→亮度
##核心##→请
的→你@打开
##核心##@开→卧室
犯罪→经济1
v→u-5
v→u-4
led灯→的
请@你→卧室
关掉→关掉@客厅
m→r
m→n
m→p
惩治j-2
贪污→##核心##@坚决
led灯→##核心##4
你→卧室
启动→吸顶灯1
卧室@的→吸顶灯
启动→客厅
##核心##→延迟@半小时
m→u
##空白##@##核心##→请
调到→把
贿赂→犯罪-3
n→ad5
n→ad3
等→坚决@惩治
吸顶灯→打开@卧室
m→root7
m→root9
犯罪→经济
##核心##→关掉@卧室
颜色→红色
贿赂j-1
卧室→启动-3
红色j0
贿赂j-2
贿赂j0
犯罪→贿赂@等
卧室→到-4
udeng→v@n
##核心##→亮度@到
n@vn→ad
开启→把@卧室
m→root2
m→root4
经济→坚决@惩治
吸顶灯@亮度→卧室
你→开启
m→root5
把→吸顶灯
打开→未##数@分钟
v→p@n
root→n-7
##空白##@##核心##→等
把@卧室→##核心##
的→你3
root→n-1
root→n-2
root→n-5
root→n-6
启动→你1
等→惩治
你@启动→##核心##
root→n-3
半小时→的
root→n-4
到→吸顶灯@亮度
v@m→root
延迟→打开@客厅
吸顶灯@打开→吸顶灯
你→启动
亮度→吸顶灯
关闭→把4
v→vn-5
udeng→n-1
卧室@吸顶灯→调到
吸顶灯→吸顶灯@关闭
吸顶灯@关闭→吸顶灯
##核心##@延迟→的
vn→root
半小时→吸顶灯
udeng→n1
吸顶灯@亮度→到
的→##核心##6
的→##核心##5
的→亮度-2
分钟→##核心##3
客厅@的→分钟
的→##核心##2
v→u-2
的→##核心##3
卧室→##核心##@把
root@ad→udeng
m→q@v
q→n-4
请@你→开启
q→n-2
请→未##数-8
把→卧室@的
##空白##@##核心##→客厅
客厅→打开-3
吸顶灯→客厅1
卧室→你2
启动→把@客厅
吸顶灯→客厅2
你@关掉→##核心##
你→##核心##2
##核心##i0
吸顶灯@打开→客厅
你@打开→##核心##
犯罪→贿赂
客厅@的→调亮
u→root
m→v-2
你@调整→的
卧室→##核心##
到→的3
未##数→打开-2
udeng→root
亮度@调到→吸顶灯
把→红色
启动→请@你
关闭→吸顶灯1
延迟→延迟@半小时
贿赂@等→惩治
n@v→m
##核心##@客厅→调亮
你→到
把→客厅-1
的→颜色
led灯→把3
延迟i1
的→到-3
到→卧室@的
你@开启→的
未##数→请8
root@p→m
卧室@吸顶灯→卧室
root@p→n
启动@客厅→吸顶灯
经济→贿赂2
的@led灯→把
亮度→未##数-2
半小时→客厅-2
客厅@的→led灯
m→u@n
的→##核心##@延迟
root@p→u
颜色@调到→的
经济@犯罪→坚决
关掉→请@你
root→m@q
udengj-1
经济→##核心##
调整@卧室→的
你@关掉→你
贿赂→经济-2
把→调到@未##数
客厅@的→把
n→n@udeng
经济→惩治4
请@你→的
##核心##→延迟
n@v→n
你→打开-1
n@v→p
等→惩治3
n@v→r
红色→客厅
n@v→u
root→vn-7
##核心##→卧室-2
调到→的3
##核心##→卧室-1
颜色→把@客厅
root@p→root
##核心##→卧室-4
请→启动@卧室
你@启动→的
调整→##空白##@##核心##
##核心##→惩治-2
请@你→启动
吸顶灯→把@卧室
调到@未##数→把
关掉@卧室→##核心##
root→r-2
r→root
##核心##@客厅→##核心##
调到→吸顶灯2
开启@卧室→的
延迟@半小时→打开
颜色j1
udeng→vn
颜色j2
半小时@打开→半小时
贪污@贿赂→坚决
亮度→到-1
贪污→等-2
##空白##@##核心##→颜色
打开→##核心##3
请→调整
led灯@颜色→的
打开→把@卧室
到→的@吸顶灯
udeng→v3
的→##核心##
把@卧室→开启
吸顶灯→关闭@客厅
未##数→吸顶灯-5
经济→##核心##@坚决
卧室→亮度@调到
打开@卧室→你
启动@客厅→请
等j0
##核心##→开启-1
亮度→的
卧室→##空白##@##核心##
##核心##→开启-5
##核心##→开启-3
打开@客厅→的
的@吸顶灯→卧室
红色→led灯@颜色
开启→你1
坚决→犯罪
客厅→红色
调到@未##数→吸顶灯
卧室→未##数-4
卧室→未##数-5
等j1
调亮→客厅3
调亮→客厅2
##核心##→启动-5
调到→卧室@吸顶灯
led灯@颜色→客厅
延迟→客厅-3
延迟→客厅-4
##核心##→启动-3
v→ad@v
##核心##→启动-1
关掉@卧室→你
调到→把@客厅
u→v@m
##核心##@打开→的
请→开
你→亮度
的→未##数@分钟
开→的2
u→v@r
你→你@调整
贪污→##核心##3
n→root@ad
颜色→调到-1
启动@卧室→的
坚决@惩治→贪污
udeng→ad
贪污→贿赂@等
红色→颜色2
v→q
v→p
的→##核心##@把
v→r
亮度→亮度@到
v→m
##空白##@##核心##→调亮
吸顶灯→客厅
未##数@分钟→的
到→卧室
v→u
关闭@客厅→吸顶灯
##空白##@##核心##→关闭
吸顶灯→吸顶灯@启动
关掉→你1
未##数→延迟1
半小时@打开→##核心##
##核心##→打开@卧室
n@udeng→n
分钟@打开→吸顶灯
把@卧室→的
未##数→的4
犯罪→等2
调整→##核心##
v@v→root
客厅→吸顶灯@打开
r→n@n
红色→把
未##数→的3
吸顶灯→到@未##数
##核心##→未##数@分钟
延迟→的-5
延迟→的-4
##核心##→客厅@的
##核心##@坚决→经济
等@经济→等
u→m-3
ad→udeng-4
u→m-4
adj0
贿赂→##核心##
的@led灯→红色
r→n@u
把→##核心##1
延迟→客厅@的
关掉→##核心##3
r→n@v
led灯→客厅
##核心##→开-1
的→调到@未##数
##核心##→开-3
半小时→吸顶灯-4
##核心##@开启→客厅
##核心##@延迟→分钟
##空白##@##核心##→犯罪
到→的
led灯→把@客厅
m@q→root
n→n-5
n→n-4
adi1
##核心##→开-5
的→吸顶灯@关闭
客厅→的
分钟→##核心##
请→你@启动
关掉@客厅→##核心##
##核心##→调整@卧室
root→p@n
v@n→root
卧室→开启-3
q→u-3
吸顶灯→延迟@半小时
颜色→##核心##
##核心##→的@吸顶灯
n→v@n
未##数→调整
颜色@调到→红色
n→v@r
##核心##@把→客厅
贿赂→##核心##4
##核心##→的
打开→把@客厅
##核心##→半小时
你→客厅-2
root→ad@v
亮度→卧室3
亮度→卧室2
关闭→的
吸顶灯→把@客厅
调到→把5
led灯→##空白##@##核心##
把@客厅→led灯
卧室→把1
root→u-2
root→u-3
经济→坚决
##核心##@请→启动
root→u-6
root→u-5
吸顶灯→吸顶灯@开启
把→led灯@颜色
##核心##@坚决→等
led灯→##核心##@把
延迟j-1
未##数@分钟→客厅
惩治j1
开启@卧室→请
v@r→m
v@r→n
ad@v→ad
打开@客厅→你
v@r→u
颜色→##空白##@##核心##
贪污@贿赂→经济
n→v@m
开→的-2
##空白##@##核心##→未##数
的@吸顶灯→客厅
##核心##@关闭→客厅
调到→把@卧室
把→红色-6
##核心##→分钟@打开
惩治i2
开启j-2
##核心##@请→卧室
关闭→客厅@的
坚决→##核心##1
的@吸顶灯→你
把→亮度-4
r→m
未##数→的
r→n
经济@犯罪→贿赂
r→u
##核心##@请→开启
亮度j-2
root→vn
把→调到@红色
关闭→卧室@的
r@v→r
r@v→u
关闭@客厅→的
半小时→打开@客厅
吸顶灯→##核心##@卧室
卧室→你@启动
r@v→m
pj-2
启动→##核心##3
r@v→n
##核心##→##核心##@客厅
到→##空白##@##核心##
吸顶灯→吸顶灯@开
的→开启-2
你→##空白##@##核心##
u→root@p
启动→的-2
r→r@v
请→你@开启
调整→到
##核心##→半小时@打开
##空白##@##核心##→开
贪污→等@经济
ad@v→v
犯罪→惩治@贪污
调到→的@吸顶灯
p→n-6
p→n-3
你@开→的
开启→客厅@的
p→n-4
p→n-1
ad@v→n
开@卧室→的
开→把@客厅
的→亮度@到
启动→把4
卧室@吸顶灯→未##数
##核心##→调到-4
调到→led灯@颜色
关掉→客厅
##核心##→调到-6
你→开@卧室
吸顶灯→你
卧室→##核心##@请
分钟@打开→延迟
##空白##@##核心##→半小时
关掉→你
m→null@root
经济@犯罪→经济
vnj1
卧室→未##数
颜色→的@led灯
客厅→##核心##2
客厅→##核心##4
客厅→##核心##5
##空白##@##核心##→分钟
客厅→的-1
客厅→##核心##1
v@n→m
vn→v@n
开→卧室-1
把@客厅→未##数
的→亮度@调到
吸顶灯→未##数5
p→v@n
p→v@m
亮度@到→你
把→把@客厅
等→经济@犯罪
请→到@未##数
q→root
亮度@调到→的
vn→v@v
请→打开@卧室
吸顶灯→关掉@客厅
惩治→等
##核心##@坚决→贿赂
开启→##核心##@把
打开→客厅3
##核心##→你@关掉
调整@卧室→亮度
吸顶灯→到-2
延迟→的
开启→吸顶灯-3
颜色→##核心##5
启动→卧室@的
v@n→q
坚决@惩治→犯罪
打开@客厅→##核心##
你→启动@客厅
v@n→p
v@n→r
v@n→u
到→请7
开启→把4
吸顶灯→你4
到@未##数→调整
打开→的@吸顶灯
##核心##@请→到
vnj2
请→客厅
经济→贪污
分钟@打开→未##数
你→开-1
你→吸顶灯-4
n→q
u→v-3
u→v-2
n→r
n→m
吸顶灯→的1
客厅→客厅@的
##核心##→关闭@卧室
的→延迟@未##数
客厅→led灯-2
n→u
启动@卧室→##核心##
的→吸顶灯@开启
的→颜色@调到
你@调整→到
亮度→##核心##@卧室
的→led灯-1
客厅→##空白##@##核心##
led灯→调到@红色
贿赂→贿赂@等
启动@客厅→的
惩治→贪污-1
启动→的
把→卧室
开启@客厅→吸顶灯
打开→打开@客厅
你@打开→卧室
请→开@卧室
调到→led灯
分钟→##空白##@##核心##
你→卧室-2
卧室→的
调到→颜色
把→的
亮度@到→请
##核心##→到@未##数
吸顶灯→到
等→等@经济
客厅→延迟@未##数
未##数→##核心##@客厅
led灯→把
贿赂→##核心##@坚决
的@led灯→##核心##
贿赂→##空白##@##核心##
客厅@的→延迟
客厅→半小时2
颜色→客厅3
led灯→红色-3
关掉j-1
关掉j-2
的→调到@红色
把@客厅→的
led灯→的1
分钟→客厅@的
打开→分钟1
##核心##@请→亮度
开→你
n@udeng→root
打开→延迟@未##数
ad→udeng
分钟→吸顶灯
的→红色
到→亮度1
开启@卧室→##核心##
##核心##@关掉→的
客厅→红色-5
的→关掉@卧室
贪污j2
颜色→客厅
##核心##@启动→客厅
led灯→颜色@调到
到@未##数→吸顶灯
##核心##→开启@卧室
你→关掉@卧室
##核心##→的@led灯
客厅→吸顶灯@亮度
延迟@半小时→客厅
吸顶灯→调整
未##数→##核心##2
关闭→吸顶灯-3
把→吸顶灯-3
未##数→##核心##5
的@吸顶灯→调整
未##数→##核心##4
p@n→root
ad→null@root
##核心##@把→未##数
调到→的
等@经济→##核心##
##核心##@请→开
吸顶灯→吸顶灯@打开
开启→卧室3
请→你@打开
u→null@root
打开→吸顶灯-3
未##数→##核心##9
未##数→##核心##7
##空白##@##核心##→你
分钟→延迟@未##数
m→u-4
你→关掉
你@开启→吸顶灯
##核心##→颜色
##空白##@##核心##→关掉
吸顶灯@亮度→未##数
打开→延迟@半小时
你→你@打开
root→m-9
亮度→的2
root→m-2
ad→udeng@n
root→m-7
root→m-4
root→m-5
v→ad1
v→ad2
卧室→打开-3
延迟→的@吸顶灯
卧室@的→##核心##
吸顶灯@开启→卧室
调整@卧室→请
亮度@到→亮度
##核心##→延迟-1
led灯→客厅2
坚决@惩治→坚决
延迟@半小时→的
ad→root1
n→n@u
的→吸顶灯@启动
vn→v4
调到→led灯2
m→p@n
##核心##@请→你
吸顶灯@开→吸顶灯
调到→吸顶灯@亮度
请→到
打开→客厅-1
开启→开启@客厅
请→客厅-3
调亮→未##数-1
n→udeng1
n@u→root
的→分钟3
关闭@卧室→吸顶灯
root→udeng-5
犯罪→贪污@贿赂
犯罪→##空白##@##核心##
客厅→你2
m→r7
启动→卧室3
犯罪→坚决6
打开→卧室-1
分钟→的
贿赂→惩治2
##核心##@请→打开
u→u@n
q→root@v
q→null@root
调整j-2
的→半小时3
吸顶灯@启动→把
你→打开@客厅
root@ad→root
开→开@卧室
调亮→调亮@未##数
你@开启→##核心##
开→把4
颜色@调到→把
请→开-2
关掉→客厅-1
m→u4
m→u3
n@u→m
##核心##@打开→吸顶灯
的→吸顶灯-1
关掉→卧室-1
未##数@分钟→延迟
未##数→打开
调整→卧室@的
请@你→吸顶灯
v→udeng@n
打开→延迟3
root@ad→vn
贪污→等
卧室→到@未##数
的→关闭@客厅
vn→null@root
打开→分钟
坚决→等-4
贪污@贿赂→惩治
开启→卧室@的
到→亮度
红色→客厅@的
请→调整-2
##核心##@开启→的
调到j-1
调到@红色→led灯
调整→未##数-6
调到@未##数→的
##核心##@把→颜色
你@打开→的
##空白##i-1
请j-1
##核心##@关掉→吸顶灯
ad→vn-6
吸顶灯@亮度→你
颜色j-2
m→n5
m→n4
m→n3
m→n2
等j-1
root→ad
p→n@u
调整@卧室→未##数
的→调整
n@u→p
调整→亮度@到
n@u→q
n@u→r
关闭→卧室3
##核心##→打开-5
你→的
##核心##→打开-4
##核心##→打开-3
亮度→到
##核心##→打开-1
开j-2
开→客厅3
的→吸顶灯@调亮
调到→客厅4
到→请@你
root→q-3
请@你→到
的@吸顶灯→到
p→n@n
你→启动-1
吸顶灯@开→把
##核心##→把@卧室
等→犯罪-2
的→红色-4
m→p6
v@v→m
v@v→n
贪污→贿赂-1
开启→##核心##3
客厅→吸顶灯@启动
惩治→##核心##@坚决
卧室@的→未##数
请@你→关掉
vn→n3
vn→n1
##核心##→客厅
开→##核心##3
调亮→客厅@的
吸顶灯@打开→的
吸顶灯→启动-1
客厅@的→半小时
半小时→的@吸顶灯
ad→v
root@ad→v
坚决i0
adi0
惩治i1
贪污i2
vi1
vj0
adj-1
贿赂j2
惩治j0
贪污j1
坚决j-1
nj2
rootj-2
##核心##j-2
vj1
nulli-2
##核心##i-1
rooti-1
##空白##i-2
vi2
坚决i-1
坚决j1
adi-1
贿赂i2
adj1
惩治j2
惩治i0
贪污i1
vi0
ni2
##核心##i-2
rooti-2
vj2
##空白##j-2
nullj-2
v→root
##空白##j-1
nullj-1
rootj0
v→null@root
##核心##j0
经济i0
犯罪i1
犯罪j0
v→n@vn
坚决i-2
n→vn
udengi2
经济j-1
v→vn
等i2
n→n@vn
adi-2
贿赂i1
udengj-2
等i-1
vnj0
vni1
贪污i0
惩治i-1
udengi-1
等j-2
贿赂i-2
ni1
ni0
vi-1
##空白##i2
nulli2
##空白##j1
nullj1
nj-1
##空白##j2
nullj2
ni-2
udeng→v
经济i2
经济i1
犯罪i2
udengj2
udengi0
udengi1
adj-2
贪污i-2
贪污i-1
等i0
等i1
贿赂i0
惩治j-1
贿赂j1
等j2
n→v@v
n@udeng→v
vni2
贪污j0
惩治i-2
坚决j-2
贿赂i-1
ni-1
nj1
vi-2
vj-1
n→v1
v@n→v
n→v
vn→v
犯罪i0
n@vn→v
经济i-1
等i-2
vni0
udengi-2
##空白##i1
nulli1
pi0
未##数i-1
qi0
m@q→v
把i0
q→v
分钟i0
mi-1
nj-2
卧室i1
的i2
ui2
吸顶灯j-1
uj-2
的j-2
的j2
uj2
客厅j1
关闭j0
启动j0
开j0
开启j0
mj-2
qj-1
分钟j-1
未##数j-2
打开j0
mj1
未##数j1
吸顶灯j-2
亮度j-1
打开i1
客厅i1
红色j1
led灯j-2
颜色j-1
调到j0
客厅i2
延迟i-2
客厅→的@吸顶灯
mj-1
n→u@n
v→n-3
开启@卧室→吸顶灯
亮度i1
亮度j1
亮度j0
到j1
到j2
到i2
打开@卧室→吸顶灯
uj-1
客厅→吸顶灯-2
root@n→n
led灯i2
led灯i0
调到j2
调到j1
调到i2
qi1
u@n→n
qj0
卧室→吸顶灯
root@v→n
把i-1
卧室→吸顶灯-2
卧室→的@吸顶灯
未##数j-1
##核心##@启动→吸顶灯
v→u@n
p@n→n
n@n→n
分钟j0
pi-1
分钟i1
红色j2
led灯j-1
的j-1
调整i-1
颜色j0
启动→的@吸顶灯
颜色i1
v→n
n→n-3
启动→吸顶灯-3
n→n-2
启动→吸顶灯
卧室j-1
卧室j-2
v@n→n
n→n
启动@卧室→吸顶灯
开@卧室→吸顶灯
n→n@n
亮度i2
卧室i-1
nj0
打开i2
延迟j-2
vj-2
吸顶灯i1
吸顶灯i0
卧室i-2
ui-1
的i-1
mi0
未##数i0
客厅i-2
关闭j1
客厅j2
启动j1
打开j1
开j1
开启j1
启动i0
mj2
未##数j2
你i-2
ri-2
的i1
ui1
打开i-1
启动i-1
吸顶灯i2
开启i-1
卧室i0
开i-1
客厅i0
客厅j-2
延迟i-1
客厅→吸顶灯
吸顶灯j0
调亮j1
把j-1
卧室@的→关闭
卧室@的→启动
的→打开
打开j-1
客厅@的→客厅
的→启动
卧室@的→开启
u→v2
u→n1
卧室@的→卧室
的j1
的→卧室
的→开启
启动j-1
的i0
led灯i1
ui0
uj1
的→开启2
led灯j2
的→关闭
的→启动@卧室
卧室@的→开
的→你@开启
的→开
卧室@的→打开
打开i-2
把i-2
rj-2
u→n@v
关闭i2
客厅j0
的→卧室1
客厅@的→打开
的→开2
启动i-2
的→打开@卧室
u→n
u→v
的→打开@客厅
开启i-2
关闭i-2
pi-2
卧室j0
客厅@的→启动
的→客厅
关掉i-2
的→打开2
u→r@v
开启j-1
的→开启@卧室
调整i-2
的→开@卧室
u→v@n
颜色i2
开i-2
你j-2
的→客厅1
u→root@v
pj-1
的→启动@客厅
的→启动2
调整j-1
n@u→n
n@u→v
开j-1
卧室j1
rootj-1
##核心##j-1
吸顶灯j2
启动i2
开i2
客厅i-1
开启i2
关掉j0
半小时j-1
rj-1
你j-1
请j-2
调亮i2
到j0
n→p3
u@n→p
关闭i1
吸顶灯→##核心##@把
到i-1
红色i2
吸顶灯→把3
颜色i0
吸顶灯→把
的@吸顶灯→把
led灯i-1
ui-2
的i-2
mi2
未##数i2
吸顶灯i-1
亮度i0
m→v1
亮度i-2
v@m→v
m→n@v
m→v
启动i1
开i1
开启i1
pj0
把j0
n→root@p
n→p
调到i1
半小时i1
半小时j2
调亮→##核心##
n→root4
pj1
关掉j1
延迟→##核心##1
关掉i2
延迟→##空白##@##核心##
调亮→##空白##@##核心##
启动→##核心##
##核心##@延迟→##核心##
未##数i-2
打开→##空白##@##核心##
吸顶灯→##核心##2
吸顶灯→##核心##4
##核心##@启动→##核心##
n@v→root
把j1
v→root1
调到i0
请i0
开启→##核心##
请j1
你j2
你i1
关闭i0
的@吸顶灯→##核心##
分钟i-1
吸顶灯→##核心##
打开→##核心##
调整i2
u@n→root
开启→##空白##@##核心##
关掉→##空白##@##核心##
开→##空白##@##核心##
ri1
rj2
n→root
n→null@root
卧室j2
吸顶灯@调亮→##核心##
开→##核心##
延迟j1
颜色i-1
红色i1
延迟→##核心##
mi-2
启动→##空白##@##核心##
启动→##核心##1
qi-1
root@v→root
关掉→##核心##
吸顶灯→##空白##@##核心##
led灯i-2
关掉i0
开i0
开启i0
吸顶灯i-2
打开i0
亮度i-1
mi1
未##数i1
调亮i1
延迟i0
调亮i0
你i-1
吸顶灯→关掉3
卧室→关闭
吸顶灯→##核心##@请
启动@卧室→启动
卧室→开1
的@吸顶灯→请
开启@卧室→开启
到i1
ri-1
卧室→启动
吸顶灯→开启3
的@吸顶灯→开
卧室→开启1
吸顶灯→打开
请i-2
吸顶灯→启动
卧室→打开
n→v3
n→v4
n→v5
吸顶灯→开启
卧室→开启
的@吸顶灯→关闭
半小时i-2
开@卧室→开
分钟i-2
卧室→开
的@吸顶灯→关掉
调整i0
吸顶灯→请5
客厅→启动
吸顶灯→关闭
吸顶灯→启动3
吸顶灯→关掉
卧室→打开1
吸顶灯→请
客厅→打开
打开@卧室→打开
关闭i-1
吸顶灯→你@启动
的@吸顶灯→打开
关掉i-1
的@吸顶灯→启动
颜色i-2
红色i0
的@吸顶灯→开启
卧室→你@开启
吸顶灯→##核心##@启动
r@v→v
qi-2
吸顶灯→开
吸顶灯→你@开启
卧室→启动1
n→r@v
关掉j2
请j0
你j1
调整j2
启动j2
rj1
开j2
开启j2
打开j2
调亮i-1
调整j0
调到i-1
n→root@v
调亮j0
v→v
u@n→v
n@n→v
n→n@v
v→root@v
关掉i1
请i-1
你i0
调整i1
ri0
卧室i2
v@r→v
r→v
半小时i0
到i0
v→r@v
半小时j1
延迟j0
n@v→v
n→v-1
root@n→v
延迟→打开
qi2
亮度→调到-1
root@v→v
吸顶灯→调亮
分钟i2
吸顶灯@亮度→调到
吸顶灯→吸顶灯@调亮
亮度→调到
吸顶灯→调亮-1
亮度→亮度@调到
##核心##@延迟→打开
客厅j-1
v→n@v
打开→延迟
半小时i-1
v→v1
吸顶灯@调亮→吸顶灯
打开→##核心##@延迟
调亮→吸顶灯1
调亮→吸顶灯
v@v→v
坚决→惩治
坚决→惩治-1
坚决→坚决@惩治
ad→v-1
##核心##@坚决→惩治
ad→ad@v
坚决@惩治→##核心##
ad@v→root
惩治→##核心##2
惩治→##核心##
惩治→##空白##@##核心##
v→root2
贪污→经济@犯罪
经济→犯罪
经济→经济@犯罪
n→vn-1
惩治@贪污→犯罪
等@经济→犯罪
v→vn-4
经济→犯罪-1
v@v→vn
贪污→犯罪
udeng@n→vn
贪污→犯罪-4
贿赂@等→贪污
贿赂→惩治@贪污
等→贪污
贿赂→贪污
贿赂→贪污1
贪污@贿赂→贪污
udeng→v@v
udeng→v2
等→贪污2
等→惩治@贪污
vn→ad@v
犯罪→惩治5
犯罪→坚决@惩治
犯罪→惩治
经济@犯罪→惩治
vn→v5
把→关闭-4
把→吸顶灯@开
分钟→打开-1
把→开-4
把→启动-4
p→v-5
p→v-4
把→打开-4
##核心##@把→启动
p→v
##核心##@把→打开
把→开
##核心##@把→调到
把→吸顶灯@关闭
##核心##@把→开启
未##数@分钟→打开
把→打开
q→v-1
把→吸顶灯@开启
q→q@v
把→调到-5
把→调到
分钟→打开
把→吸顶灯@启动
##核心##@把→关闭
把→吸顶灯@打开
分钟→分钟@打开
root@p→v
##核心##@把→开
把→关闭
把→开启-4
把→亮度@调到
把→开启
把→颜色@调到
p→n@v
把→启动
v@m→q
客厅→led灯@颜色
吸顶灯→亮度
延迟@未##数→分钟
m→m@q
卧室→吸顶灯-1
led灯→led灯@颜色
未##数→未##数@分钟
led灯→颜色-1
把@客厅→吸顶灯
客厅→颜色-3
m→q-1
卧室→卧室@吸顶灯
m→q
的@吸顶灯→亮度
led灯→颜色
未##数→分钟
的@led灯→颜色
调整@卧室→吸顶灯
卧室@吸顶灯→亮度
吸顶灯→亮度-1
n→n-1
把@卧室→吸顶灯
未##数→分钟-1
吸顶灯→吸顶灯@亮度
客厅→颜色
##核心##@卧室→吸顶灯
把@客厅→颜色
##核心##@客厅→吸顶灯
的→分钟@打开
的→把@卧室
的→##核心##@启动
的→##核心##@开启
u→p@n
的→##核心##@打开
的→##核心##@开
的→你@关掉
的→半小时@打开
的→关掉2
的→关掉
的→##核心##@客厅
客厅@的→开启
的→把@客厅
的→调整@卧室
客厅@的→关闭
的→关闭2
的→##核心##@关掉
u→root@n
客厅@的→关掉
卧室@的→关掉
u→q@v
的→##核心##@关闭
颜色→##核心##@把
未##数→到
颜色→把
到@未##数→到
未##数→亮度@到
led灯@颜色→把
未##数→到1
颜色→把4
亮度→##核心##@把
亮度→把4
n→p4
n@n→p
吸顶灯@亮度→把
亮度→把
请→##空白##@##核心##
关闭→##核心##
调到→##核心##6
调到→##核心##4
吸顶灯@打开→##核心##
v→root6
v→root5
v→root4
调亮→##核心##4
##核心##@打开→##核心##
客厅@吸顶灯→##核心##
调到→##核心##
关闭→##核心##5
关闭→##核心##1
调到→##空白##@##核心##
请→##核心##1
##核心##@开启→##核心##
颜色@调到→##核心##
q@v→root
请→##核心##
分钟@打开→##核心##
##核心##@关闭→##核心##
##核心##@请→##核心##
亮度@调到→##核心##
吸顶灯@开→##核心##
##核心##@开→##核心##
打开→##核心##1
打开→##核心##4
打开→##核心##5
关掉→##核心##1
吸顶灯@启动→##核心##
启动→##核心##5
吸顶灯@开启→##核心##
##核心##@关掉→##核心##
关闭→##空白##@##核心##
吸顶灯@关闭→##核心##
开启→##核心##1
开启→##核心##5
开→##核心##1
开→##核心##5
客厅→启动1
客厅→分钟@打开
客厅→你@启动
开→##核心##@请
吸顶灯→##核心##@关掉
开启→请2
关掉→请
吸顶灯→半小时@打开
启动→请2
关闭@卧室→关闭
启动@客厅→启动
n→q@v
开启→##核心##@请
关掉→请2
客厅→##核心##@关掉
开→请2
你@开→请
调整→请2
客厅→关掉
红色→颜色@调到
你@调整→请
开启@客厅→开启
吸顶灯@亮度→调整
客厅→你@打开
你@打开→请
客厅→关闭
吸顶灯→分钟@打开
打开→##核心##@请
关闭@客厅→关闭
你@启动→请
客厅→半小时@打开
客厅→开启
调整→请
关掉@卧室→关掉
调整→##核心##@请
客厅→开启1
卧室→关掉1
启动→##核心##@请
客厅→关掉1
客厅→##核心##@打开
你@关掉→请
吸顶灯→开3
卧室→你@关掉
客厅→##核心##@开启
卧室→##核心##@打开
卧室→关闭1
启动→请
打开@客厅→打开
关掉@客厅→关掉
打开→请
吸顶灯→关闭3
开→请
吸顶灯→##核心##@打开
卧室→##核心##@开启
你@开启→请
吸顶灯→你@打开
吸顶灯→打开3
卧室→##核心##@启动
客厅→##核心##@关闭
吸顶灯→##核心##@开启
亮度→调整4
卧室→##核心##@关闭
客厅→打开1
红色→调到
吸顶灯→##核心##@开
调到@红色→调到
客厅→##核心##@启动
亮度→你@调整
红色→调到1
卧室→关掉
卧室→##核心##@开
关掉→##核心##@请
亮度→调整
开启→请
客厅→关闭1
吸顶灯→你@开
打开→请2
吸顶灯→##核心##@关闭
未##数→吸顶灯@调亮
未##数→调到1
未##数→亮度@调到
调到@未##数→调到
未##数→调亮1
未##数→调亮
调亮@未##数→调亮
未##数→调到
v→v2
请@你→请
你→请
r→v1
你→请1
你→##核心##@请
r→root@v
关系
到→调整5
半小时→延迟1
延迟@半小时→延迟
m→v@v
v→v5
半小时→延迟
亮度@到→调整
半小时→##核心##@延迟
到→调整
到→你@调整
延迟→打开-3
客厅→吸顶灯-1
的@吸顶灯→调亮
v→v-3
v→q@v
客厅→客厅@吸顶灯
延迟→分钟@打开
半小时@打开→延迟
调亮→客厅@吸顶灯
打开→延迟2
0.2578444379440136
0.2919070483689838
0.253814030183651
0.2712575717553013
0.2465028483028379
0.27905927975908656
0.27080721717744677
0.31050270430321975
0.4131239265909082
0.27684149724686385
0.28616674426082067
0.26213524929448806
0.26409048687944964
0.3409987807900798
0.2532828234582757
0.2365206157655976
0.2510585078534304
0.32492879800279073
0.2779372941384834
0.33690040319085024
0.28174953816487175
0.30923961197904115
0.2878071380524986
0.39720149677762095
0.2519815859463815
0.23050634275437218
0.2955290737222919
0.24238712682211916
0.24120565030801946
0.4606750327463334
0.24363812601240656
0.25907063025889715
0.24264506863676957
0.31050270430321975
0.2565575803707488
0.21558368276359707
0.24017156732282546
0.4941114612766992
0.23752340330989072
0.262918190999308
0.30164423961451386
0.26521877100772345
0.5838443586556532
0.2671476119315285
0.26128801294925597
0.2955290737222919
0.29240255857164704
0.3010990653094348
0.3864636373057789
0.28647346402258966
0.30191211253173234
0.25298600774868546
0.2541122268883967
0.2786609862440904
0.2994329293041062
0.35980087983420994
0.3176919618767125
0.2360051102350286
0.28320271851825646
0.48934176825429465
0.44987199284320295
0.32631389868476685
0.2847064593736959
0.25844435975431196
0.24310068013638436
0.46391173269720765
0.25907063025889715
0.31866680093216404
0.2891098693019927
0.27496029190240995
0.27729282845544445
0.2976046143949609
0.2934298340738363
0.33005338549397756
0.26370233791360703
0.25762074125906625
0.32631389868476685
0.25567422619856117
0.24443943158272813
0.280505921440784
0.2532828234582757
0.28417569954204897
0.3357560329682617
0.24275740075452523
0.26409048687944964
0.2915391862607387
0.3858380231857302
0.39511754442354496
0.2547435716646369
0.2516686345051547
0.5127543476869266
0.2851900964118577
0.3329291815939105
0.23949381599536654
0.319686482107788
0.2666138071679482
0.32095115325328705
0.25815402821349415
0.260549803088448
0.3285844636426223
0.30923961197904115
0.24072596357063586
0.25472847873500387
0.31715859267184227
0.26097810528567356
0.23475969500164645
0.25699694858457156
0.26838261587433526
0.24047996756616408
0.25187720358528803
0.2684470893030361
0.29302982240544406
0.25297946601924537
0.25162505523447365
0.2559233947215995
0.23602412094620345
0.2747257816525116
0.24081460858230047
0.2798993955478385
0.2706773066444247
0.25297946601924537
0.2452617458801354
0.24081460858230047
0.23724253879992024
0.26925811229987234
0.28133814727236106
0.281460977784904
0.2620639762636382
0.2972846303589325
0.2880838418186698
0.2976997725352651
0.2973718023216217
0.3011796255239546
0.28521395496986307
0.25535870721929615
0.262120984287601
0.2688645850902539
0.3182762556072886
0.31122606528639213
0.30403056036528653
0.24510611921757508
0.26520501056519746
0.3220230179683323
0.3182762556072886
0.3675496233811146
0.27633675009298686
0.26714964464820784
0.32541931752777553
0.23265456517048907
0.28673907534503956
0.2508616538878112
0.2516686725864287
0.23339173111959052
0.25762074125906625
0.25465908252046837
0.3600004091221748
0.35508691203636367
0.3184603199275754
0.2506550697949727
0.2452271290096426
0.2915391862607387
0.37156064709477865
0.24424006012786778
0.3058495574267795
0.25843336810311496
0.27987301950521154
0.36484481099427496
0.2677099419140127
0.2955290737222919
0.2644729403097085
0.40798751905893704
0.2852403823251754
0.2692315922293146
0.2613931033221088
0.41320621453097406
0.29557092319671
0.2847064593736959
0.2615198491819339
0.24436699517416804
0.2580509599930415
0.2726269828259276
0.2964357295003979
0.2943925308471906
0.2830692507157801
0.24081460858230047
0.23731039091859638
0.26714964464820784
0.2712310462348344
0.26448492765182885
0.28287538689874275
0.2623106789037245
0.2625686084287396
0.35980087983420994
0.4357264779659303
0.2508616538878112
0.291640877875454
0.26039716786363865
0.2756029112017507
0.2716353263630677
0.2866649315064783
0.27034216952013423
0.2564481949922026
0.260549803088448
0.25648166357452584
0.25216157370805864
0.2588610588860235
0.3522943438912277
0.27304858899747486
0.33961013731733897
0.3701684449196366
0.24460509171173497
0.26370580340015487
0.24336971498200097
0.2564481949922026
0.2452617458801354
0.2857002868484467
0.4183811255885398
0.23419113969052685
0.28414296172563375
0.2756029112017507
0.23870269926665047
0.39511754442354496
0.326653329150925
0.29240255857164704
0.27987674280099345
0.2519815859463815
0.2851900964118577
0.2758694524029422
0.4941114612766992
0.3026398249602926
0.27684149724686385
0.2922775169474229
0.24150347941089992
0.2776090076081656
0.23186093615306802
0.26328553211452166
0.3184603199275754
0.2530127468259024
0.2548419294770323
0.2859076002049133
0.2973718023216217
0.24225341507571152
0.24086567773651868
0.3639566615561364
0.2713789123955175
0.4848422517091953
0.2590177769390235
0.27034216952013423
0.32541931752777553
0.2509305273300403
0.286389381537497
0.2747257816525116
0.2412729138685515
0.2830692507157801
0.26373397472127397
0.24174476317595117
0.2830692507157801
0.2866649315064783
0.28402751630435324
0.3049548277333822
0.3409987807900798
0.2227318895929785
0.23125640282105173
0.715449264134561
0.2890065808730481
0.24224412684809185
0.28283805995881184
0.2910795920366286
0.33310318442277503
0.2870480233075998
0.29257748732567485
0.24443943158272813
0.24353645795647702
0.284084200777832
0.23731039091859638
0.4372194468238955
0.2532828234582757
0.2579067255803571
0.3600004091221748
0.401331336471649
0.2302495223188519
0.24336971498200097
0.26174537841397694
0.2726684690660381
0.2688989240054089
0.3522943438912277
0.24017156732282546
0.3443475276308295
0.26448492765182885
0.3145166101114014
0.2689238639836544
0.30403056036528653
0.27633675009298686
0.4379156081168186
1.0224991031588755
0.264736581524855
0.30828660017133064
0.26714964464820784
0.49011477304353207
0.3220408776824834
0.2986250830550768
0.3058243341862535
0.25314511406758544
0.2786609862440904
0.30529825403079625
0.24244069686873404
0.25291190660629853
0.2747257816525116
0.31715859267184227
0.24480603139120358
0.24238712682211916
0.32551452889548044
0.2857433644675288
0.24336971498200097
0.25465908252046837
0.2452271290096426
0.253392882634776
0.2573377627606602
0.49997566645410213
0.25472847873500387
0.2668122034889679
0.3858380231857302
0.2940740836245559
0.2627621077933052
0.29064867782259163
0.2261802983551411
0.22360624234617668
0.23778352726453167
0.26838261587433526
0.2304421166950315
0.2703833423478404
0.2688989240054089
0.3433174462954117
0.2609216022593387
0.2786609862440904
0.25648166357452584
0.2638586062382007
0.2756029112017507
0.2797982214082925
0.2318671990424047
0.2697039956159932
0.24764472182793
0.28673907534503956
0.5838443586556532
0.2797982214082925
0.2765376128041811
0.25776991826220785
0.293185203118435
0.2362229208038184
0.305044545153813
0.23602412094620345
0.22772858849119937
0.2573377627606602
0.3313572472643824
0.2452271290096426
0.26527179137819973
0.27535225773360245
0.2689238639836544
0.46391173269720765
0.2828150665977343
0.23731039091859638
0.25306255682298445
0.2750825924326021
0.2500622981463981
0.26482178192794975
0.4848422517091953
0.25762952874074296
0.36484481099427496
0.3359303172141274
1.2151274559813716
0.2251354625576173
0.3424646963529512
0.36682346862271015
0.4558300250092308
0.3528757803748478
0.39690487678683173
0.2688645850902539
0.25971660371826283
0.2716353263630677
0.2761224240242702
0.256520486215004
0.29240255857164704
0.26482178192794975
0.3480626669109332
0.3858380231857302
0.23847876730279724
0.4831918699950719
0.31050270430321975
0.3182762556072886
0.28841102930478874
0.2624887522510238
0.2677099419140127
0.25817580231398707
0.24597637799059824
0.23944680663129675
0.2565575803707488
0.26128801294925597
0.286389381537497
0.27885691351149855
0.2950483703573459
0.24238712682211916
0.27903888148931133
0.2847064593736959
0.2394568206492686
0.26226219362782016
0.26298480859180007
0.23731039091859638
0.26521877100772345
0.26527179137819973
0.24096652244221
0.24739137655511745
0.26838261587433526
0.27464093870995654
0.2812985006257898
0.4470789499394171
0.22275783057927417
0.24460509171173497
0.27882745877080556
0.26128801294925597
0.27633675009298686
0.2807738187789381
0.23437368397024028
0.305044545153813
0.25188202694297895
0.40798751905893704
0.2878071380524986
0.2708589824198971
0.2647140617380083
0.28616674426082067
0.2604281100190018
0.21896876924120723
0.23249271263755386
0.23618551817408764
0.22414115985569621
0.6311318491836413
0.2649009532046251
0.2559233947215995
0.35508691203636367
0.26298480859180007
0.3492140948119452
0.23912138120353615
0.24225341507571152
0.482132002808388
0.2671476119315285
0.26462272716313207
0.27304858899747486
0.2703215235008232
0.2579067255803571
0.24234472989570696
0.32523522939344585
0.4372194468238955
0.44987199284320295
0.27496029190240995
0.2703304103367354
0.30295178426120895
0.3077690866431584
0.23399017806444564
0.2915391862607387
0.259481393061293
0.2647140617380083
0.23535672551149783
0.24275740075452523
0.3347098120172537
0.24016173155069925
0.25005023704756446
0.2264741377049906
0.46391173269720765
0.259641690709003
0.26527179137819973
0.4470789499394171
0.2290381964283635
0.30164423961451386
0.2857002868484467
0.25762074125906625
0.26579334746648936
0.24205952635030945
0.2347027042056415
0.25110162593543833
0.24328046661075778
0.25340707744897106
0.23602412094620345
0.25005023704756446
0.2563359265187718
0.30762201967996117
0.24171482339687955
0.28434804128975194
0.25216157370805864
0.26409048687944964
0.28980789972804416
0.28848414817939266
0.27340866110064943
0.30191211253173234
0.2584604556569107
0.23206821211144293
0.24424006012786778
0.27918815603114294
0.40982418380158775
0.285474813473773
0.4048311967042078
0.41320621453097406
0.24640390321432112
0.2891098693019927
0.28270478083637
0.5034922537754989
0.2649009532046251
0.3080976087410004
0.2302495223188519
0.23265456517048907
0.2395922111534853
0.2605765120424787
0.30762201967996117
0.3359303172141274
0.24883230550287505
0.3831562156673941
0.305044545153813
0.24561083748979934
0.24841502192465037
0.2554803889197555
0.2910795920366286
0.2779299674012898
0.2548419294770323
0.3154773431657778
0.26213524929448806
0.284084200777832
0.23709034567081405
0.33081568261094185
0.28267867120348544
1.0202864232186981
0.24640390321432112
0.2688645850902539
0.25815402821349415
0.22185868916348825
0.23847876730279724
0.2305697708420602
0.22356969425636325
0.2709279658719024
0.28983310890500535
0.24291893886095875
0.2319306348545077
0.2830692507157801
0.243813731883634
0.2452617458801354
0.2536957899424032
0.30326348238969014
0.2822265546165669
0.25651040573036676
0.2574486193529048
0.2911792235027493
0.24764472182793
0.24096652244221
0.3313572472643824
0.24652471989766309
0.24150347941089992
0.24151879693856898
0.26390495188283586
0.24764472182793
0.25985238435646424
0.3040242444008042
0.29905024834328875
0.23934385264197935
0.23569243189943825
0.2506550697949727
0.25567422619856117
0.39690487678683173
0.2852403823251754
0.34831110526331155
0.2812931038596129
0.2852403823251754
0.2418167560594461
0.5530168001648089
0.25946970593344326
0.30762201967996117
0.28174953816487175
0.3054563867475061
0.26660558040240423
0.24467734119382337
0.25831249205142
0.5989494851222055
0.2452271290096426
0.25465908252046837
0.23602412094620345
0.5189130364425079
0.2548419294770323
0.2911792235027493
0.23996193803053653
0.23399017806444564
0.23916854661033632
0.25830739289359805
0.27633675009298686
0.249141115229497
0.27882745877080556
0.2665952805853635
0.2619644044086245
0.3042390587007725
0.23773045840361315
0.2555754812985784
0.312291576818522
0.26128801294925597
0.24443943158272813
0.2671476119315285
0.2647140617380083
0.2619644044086245
0.26699177954812847
0.2716353263630677
0.28358159496331115
0.255944677831279
0.23339173111959052
0.40215458215807426
0.3176919618767125
0.2466357168476114
0.404974224716201
0.21277833713213118
0.3285844636426223
0.2567805103185136
0.25472847873500387
0.2294397701113851
0.482132002808388
0.5936950389178501
0.29445268510341366
0.2735171118311418
0.2797982214082925
0.26409048687944964
0.2565575803707488
0.2422810032138345
0.2345498099874911
0.2251781319309698
0.25907063025889715
0.34831110526331155
0.26690691170477515
0.2668122034889679
0.291640877875454
0.24275740075452523
0.2756029112017507
0.3184603199275754
0.2345505776769618
0.2810393976848771
0.28503194262660214
0.23399017806444564
0.255944677831279
0.23819383402793823
0.2412729138685515
0.25472847873500387
0.2828150665977343
0.2799780257754134
0.2545062498293666
0.24291893886095875
0.28939469047181865
0.243813731883634
0.24928277301269886
0.2891098693019927
0.3600004091221748
0.23186093615306802
0.28976018422337296
0.25386250648518066
0.5530168001648089
0.2472675906633692
0.27541352028064886
0.2500622981463981
0.2516686345051547
0.2906733900912668
0.2556077812998924
0.2650913972905145
0.29059053927681605
0.3330772556237508
0.42726869455569766
0.25564855202679404
0.23106051044809783
0.30326348238969014
0.4470789499394171
1.1748674770978424
0.25472847873500387
0.255944677831279
0.24214308900049628
0.2395922111534853
0.28204089518874076
0.27987674280099345
0.24841502192465037
0.4048311967042078
0.33942098443807456
0.2418167560594461
0.25586929627419563
0.26298480859180007
0.24017156732282546
0.305044545153813
0.3521538605444287
0.2422810032138345
0.21558368276359707
0.2627621077933052
0.2516686725864287
0.2949911199384473
0.2671476119315285
0.2504504029056381
0.2545062498293666
0.2708589824198971
0.32648811473502093
0.2663477378741693
0.24291893886095875
0.26370580340015487
0.22417445782139017
0.3040242444008042
0.25946970593344326
0.2976046143949609
0.7482824960880482
0.26527179137819973
0.2830692507157801
0.28270478083637
0.2580509599930415
0.24291893886095875
0.295571625948606
0.2781314836409234
0.25188202694297895
0.26520501056519746
0.5328675866072071
0.2541122268883967
0.262120984287601
0.24063119780532088
0.23246224776649757
0.2604281100190018
0.36861983289125916
0.27755107574123017
0.2310504692238135
0.2689238639836544
0.5989494851222055
0.23339173111959052
0.2579067255803571
0.3097776431860268
0.2821899858886687
0.5989494851222055
0.28270478083637
0.23949381599536654
0.23916854661033632
0.30079021927265553
0.246443666602703
0.25917570286099634
0.24565386363540437
0.2568117316810062
0.26482178192794975
0.3256449701242711
0.23398257852889676
0.3049548277333822
0.286389381537497
0.30287218381045095
0.244001253077657
0.25791754461615596
0.29240255857164704
0.2955290737222919
0.2412729138685515
0.25297946601924537
0.26496163852760474
0.39690487678683173
0.2955290737222919
0.22356969425636325
0.2851900964118577
0.2797982214082925
0.27340866110064943
0.2972846303589325
0.25282360005755633
0.2211474003823627
0.3549556636181354
0.25297946601924537
0.2564481949922026
0.26520501056519746
0.2750825924326021
0.25830739289359805
0.24343531118107264
0.2605765120424787
0.2747257816525116
0.31050270430321975
0.2812931038596129
0.3675496233811146
0.3275346700555785
0.25843336810311496
0.3864636373057789
0.28616674426082067
0.5209337872007326
0.5787961228327819
0.24460509171173497
0.3256449701242711
0.2633466466485043
0.2728877723812911
0.2619644044086245
0.2264741377049906
0.2878071380524986
0.6311318491836413
0.2439902691065733
0.2940740836245559
0.39511754442354496
0.25314511406758544
0.25312354141385573
0.3097776431860268
0.28790172338899567
0.2881538589641268
0.5528065059731853
0.6324091699053309
0.3308325862780868
0.2494507396563031
0.2749302481535669
0.25188202694297895
0.3313572472643824
0.2585104401746998
0.2698057174134633
0.2588610588860235
0.21277833713213118
0.2389710655373119
0.2649380380387023
0.3488664988133657
0.23818606426778524
0.23611525844052333
0.24081460858230047
0.2830692507157801
0.25297946601924537
0.24796657089623095
0.2418167560594461
0.25271675696187124
0.23265456517048907
0.2504504029056381
0.2438937374200083
0.30403056036528653
0.24883230550287505
0.319686482107788
0.2857433644675288
0.3220230179683323
0.26714964464820784
0.2797982214082925
0.253392882634776
0.2362229208038184
0.39720149677762095
0.269654299425037
0.24865664106785365
0.27564143591775486
0.28644976493326435
0.23106051044809783
0.25472847873500387
0.24727031652608517
0.26128801294925597
0.24214308900049628
0.27633675009298686
0.24652471989766309
0.5787961228327819
0.2412729138685515
0.31715859267184227
0.3864636373057789
0.24471283456102025
0.24017156732282546
0.286389381537497
0.2949911199384473
0.25648166357452584
0.249141115229497
0.28785700904202516
0.2580082199332215
0.2585104401746998
0.26388654599539924
0.24702328055023157
0.2532828234582757
0.7397680773085745
0.28270478083637
0.2500622981463981
0.40982418380158775
0.2428031132351918
0.2798993955478385
0.266870080990136
0.27340866110064943
0.3256449701242711
0.25306255682298445
0.3040242444008042
0.2532828234582757
0.45859980509546167
0.32477168980584226
0.3858380231857302
0.2847064593736959
0.24063119780532088
0.4048311967042078
0.2751871912395764
0.25960562810872573
0.3347098120172537
0.2940740836245559
0.3053698098396291
0.2830692507157801
0.23912138120353615
0.26688214964875684
0.2706713739308469
0.24702328055023157
0.27346773488636394
0.30403056036528653
0.26527179137819973
0.2686793208336938
0.255944677831279
0.5838443586556532
0.2510352597097724
0.32335993190169554
0.32477168980584226
0.30326348238969014
0.26226219362782016
0.24359665259392946
0.2634443322585664
0.2960589373419448
0.23705984601944521
0.28000451159274053
0.2780711684738483
0.28503194262660214
0.25327738776893405
0.23751593857906125
0.30815061255634574
0.3244100373981692
0.2802527319864235
0.4888156990717325
0.24150194973841582
0.35508691203636367
0.31050270430321975
0.259641690709003
0.295120360210164
0.482132002808388
0.2802527319864235
0.31122606528639213
0.2559233947215995
0.2689238639836544
0.22838618737024777
0.2671476119315285
0.2584604556569107
0.3428517284452002
0.4131239265909082
0.25938973423649053
0.24336971498200097
0.2643637216235673
0.24652471989766309
0.27340866110064943
0.32335993190169554
0.3831562156673941
0.26714964464820784
0.26213524929448806
0.32306809497458755
0.315479152457184
0.2604281100190018
0.28283805995881184
0.22356969425636325
0.2910795920366286
0.23709034567081405
0.2579402961772321
0.39690487678683173
0.3184603199275754
0.2476767866474254
0.31715859267184227
0.32648811473502093
0.25762952874074296
0.35980087983420994
0.2872942065002678
0.2445777691775215
0.29170195258330084
0.24353645795647702
0.28983310890500535
0.23186093615306802
0.3057206853706313
0.29240255857164704
0.2834657363257235
0.2577108297658787
0.2694290151564161
0.25655754298087363
0.3049494423991098
0.2585104401746998
0.6311318491836413
0.29815778144371996
0.41898766330898674
0.2394814486623029
0.2506550697949727
0.31050270430321975
0.24796657089623095
0.305044545153813
0.319686482107788
0.24516331899469315
0.25005023704756446
0.24205952635030945
0.29815778144371996
0.3182762556072886
0.2934298340738363
0.28658451452249795
0.2794632228932441
0.30326348238969014
0.262918190999308
0.25843336810311496
0.26125653647064595
0.23222791467802287
0.2417483200413619
0.33942098443807456
0.677198480829784
0.26520501056519746
0.2264749913416525
0.3675496233811146
0.36682346862271015
0.2647348317890885
0.38593401455043935
0.2694290151564161
0.303416669912082
0.25762074125906625
0.24171852405456115
0.45085908936509017
0.26128801294925597
0.4848422517091953
0.2352988440877208
0.24480139319562425
0.4488985339193582
0.2870480233075998
0.25276687193718655
0.22185868916348825
0.24017156732282546
0.26097810528567356
0.2908054559362019
0.25117879695445544
0.24013783218479667
0.40559638410454163
0.24729396508832133
0.2911792235027493
0.249141115229497
0.3347098120172537
0.27918815603114294
0.37156064709477865
0.3347098120172537
0.23773045840361315
0.23843694749555344
0.2749302481535669
0.28616674426082067
0.32631389868476685
0.2362229208038184
0.30193601447861446
0.25651040573036676
0.5237536197422292
0.23842563847419068
0.24727031652608517
0.5328675866072071
0.41320621453097406
0.24016173155069925
0.25946970593344326
0.28358159496331115
0.3521538605444287
0.25077506380647746
0.29267750078532223
0.2973739925295557
0.2781314836409234
0.2911792235027493
0.2601543831783941
0.24013957072033915
0.2673495251590514
0.2949911199384473
0.2976997725352651
0.2580601431021251
0.2728877723812911
0.3160181803549258
0.315479152457184
0.24702328055023157
0.23602412094620345
0.3433174462954117
0.27849805252311977
0.25938973423649053
0.24275740075452523
0.23604448809134787
0.33081568261094185
0.26370580340015487
0.24597637799059824
0.26213524929448806
0.2345498099874911
0.2878071380524986
0.2493616217407079
0.243813731883634
0.3443475276308295
0.30326348238969014
0.299977634257668
0.26883198666115427
0.21558368276359707
0.2697039956159932
0.2973718023216217
0.24764472182793
0.2828150665977343
0.25985238435646424
0.286389381537497
0.28283805995881184
0.2476767866474254
0.3014507235906294
0.32551452889548044
0.29257748732567485
0.22664757855674877
0.30154101653577753
0.4861514476288349
0.26745898996607337
0.3357560329682617
0.2585104401746998
0.2527177292646724
0.30191211253173234
0.282283345033061
0.25985238435646424
0.26097810528567356
0.3528757803748478
0.2516292973664726
0.25249254359867856
0.3424646963529512
0.2604281100190018
0.24436699517416804
0.24336971498200097
0.3600004091221748
0.2574179372112366
0.37156064709477865
0.5936866083199729
0.2751871912395764
0.2823529645304106
0.24727749406924307
0.2908054559362019
0.25665233731562526
0.26450154684464494
0.3262956665432924
0.3347098120172537
0.6442403052579857
0.35508691203636367
0.29257748732567485
0.28402751630435324
0.28066579292884425
0.23778352726453167
0.44987199284320295
0.2452617458801354
0.2976083609485022
0.35980087983420994
0.32551452889548044
0.3053698098396291
0.25512772219321944
0.24291893886095875
0.27412481186590126
0.24081460858230047
0.23709034567081405
0.3409987807900798
0.27895600909056334
0.27882745877080556
0.3864636373057789
0.26392189504261854
0.2516686725864287
0.32648811473502093
0.2736101712392312
0.26213524929448806
0.2802527319864235
0.2563359265187718
0.5936866083199729
0.28503194262660214
0.25291190660629853
0.24529679900279808
0.4758355766933745
0.2418167560594461
0.26714964464820784
0.2545062498293666
0.28503194262660214
0.28983310890500535
0.33310318442277503
0.26521877100772345
0.2506550697949727
0.4337854664519523
0.2810393976848771
0.26660558040240423
0.24648955824401297
0.25586929627419563
0.2911792235027493
0.3433174462954117
0.27860822662668494
0.3359303172141274
0.26482178192794975
0.2557801167365186
0.3330772556237508
0.23325019033860608
0.2692315922293146
0.23731039091859638
0.2251781319309698
0.29815778144371996
0.3864636373057789
0.2548419294770323
0.2590177769390235
0.2475916292615074
0.25815402821349415
0.3176919618767125
0.24801406276284776
0.2703241451607211
0.2776090076081656
0.26370233791360703
0.28414296172563375
0.2920316802336852
0.25297946601924537
0.4848422517091953
0.2786609862440904
0.305044545153813
0.2828150665977343
0.28548470673867804
0.28673907534503956
0.2577552617578086
0.3409987807900798
0.6324091699053309
0.2547435716646369
0.2567805103185136
0.25472847873500387
0.2766633505261305
0.3053698098396291
0.3205774545878702
0.31849851584477
0.23186093615306802
0.315479152457184
0.7102362512518755
0.2588610588860235
0.42726869455569766
0.30191211253173234
0.25564855202679404
0.22356969425636325
0.24939882294067295
0.27895600909056334
0.2709279658719024
0.26527179137819973
0.4470789499394171
0.2830692507157801
0.28983310890500535
0.24291893886095875
0.25306255682298445
0.2966538742737465
0.2763205994126917
0.25907063025889715
0.3330772556237508
0.21277833713213118
0.33942098443807456
0.23579164128362964
0.25648166357452584
0.26521877100772345
0.37089133369324934
0.2821899858886687
0.32551452889548044
0.24443943158272813
0.26370580340015487
0.23579164128362964
0.26880803479136717
0.5177313334500108
0.28066579292884425
0.30164423961451386
0.24919001507798882
0.2585104401746998
0.24841502192465037
0.23591479679505684
0.2708589824198971
0.28790172338899567
0.2412729138685515
0.2529583774121804
0.243813731883634
0.2536957899424032
0.26039716786363865
0.39511754442354496
0.2522595379502024
0.2713789123955175
0.28828680180659305
0.36682346862271015
0.22185868916348825
0.25314511406758544
0.25005023704756446
0.2559233947215995
0.48934176825429465
0.2981794371982567
0.30287218381045095
0.5127543476869266
0.5989494851222055
0.26527179137819973
0.2934298340738363
0.2516686725864287
0.2688645850902539
0.2847064593736959
0.3182762556072886
0.3612042455452285
0.2552175180502531
0.22185868916348825
0.299300940246909
0.2395922111534853
0.260549803088448
0.23265456517048907
0.26128801294925597
0.3097776431860268
0.4696484410618711
0.25762952874074296
0.3145166101114014
0.25762952874074296
0.26745898996607337
0.2891098693019927
0.24336971498200097
0.2950483703573459
0.23236123935297054
0.2797982214082925
0.24841502192465037
0.24460509171173497
0.27496029190240995
0.2579067255803571
0.2412729138685515
0.24621930654233212
0.26388654599539924
0.33690040319085024
0.27571321826995654
0.2910795920366286
0.3864636373057789
0.24224412684809185
0.6948757798316888
0.28414296172563375
0.8189031560461159
0.2618385677194209
0.26226219362782016
0.24047398334901085
0.25112745472553133
0.24353645795647702
0.26923913057267657
0.25699694858457156
0.26714964464820784
0.2859076002049133
0.3182762556072886
0.25465908252046837
0.2688645850902539
0.26880803479136717
0.26923913057267657
0.3480626669109332
0.29607018626034604
0.27849981038076904
0.22360624234617668
0.2508616538878112
0.28414296172563375
0.28790172338899567
0.3347098120172537
0.27882745877080556
0.2619644044086245
0.33961013731733897
0.29155380876624404
0.31033567460186123
0.28647346402258966
0.26226219362782016
0.27052748025192247
0.2362229208038184
0.2452271290096426
0.2908054559362019
0.25998047225682963
0.2573377627606602
0.25465908252046837
0.25297946601924537
0.30762201967996117
0.24841502192465037
0.2452617458801354
0.2671476119315285
0.2797421367472762
0.285474813473773
0.2813884777477449
0.3424646963529512
0.28548470673867804
0.3357560329682617
0.29993209239731056
0.2857433644675288
0.3097776431860268
0.2788301480158732
0.25265459931614004
0.2412729138685515
0.27367913629921514
0.24764472182793
0.26688214964875684
0.24504552844230185
0.2704139601898261
0.24634595849104454
0.2627621077933052
0.33961013731733897
0.41534881334100165
0.2916148402818627
0.21277833713213118
0.25488996408982684
0.26141298040893546
0.2949911199384473
0.26660558040240423
0.26390495188283586
0.326653329150925
0.30287218381045095
0.2851900964118577
0.35508691203636367
0.2548419294770323
0.26420046066466707
0.4696484410618711
0.28017576746281175
0.24241123471511555
0.29240255857164704
0.2601543831783941
0.24841502192465037
0.30234683118920913
0.2556077812998924
0.2650913972905145
0.27304858899747486
0.2750825924326021
0.2828150665977343
0.2906733900912668
0.23916468698988272
0.29059053927681605
0.3443475276308295
0.249141115229497
0.5936866083199729
0.25762952874074296
0.3357560329682617
0.255944677831279
0.2647140617380083
0.26156457203519373
0.2560533129943595
0.3488664988133657
0.2509305273300403
0.23912138120353615
0.2776090076081656
0.28693751633966025
0.46255046502933733
0.2585104401746998
0.2541122268883967
0.2802527318567929
0.5023441359600427
0.2557801167365186
0.2976046143949609
0.28204089518874076
0.5936866083199729
0.24225341507571152
0.26421438612775305
0.2294397701113851
0.5936866083199729
0.2797982214082925
0.24310068013638436
0.2623106789037245
0.2627621077933052
0.28017576746281175
0.27496029190240995
0.33961013731733897
0.24663795378711015
0.3285844636426223
0.319686482107788
0.3057206853706313
0.2934298340738363
0.5016180160417603
0.26373793185801303
0.26039716786363865
0.2294397701113851
0.24031365450572242
0.3858380231857302
0.26520501056519746
0.23475969500164645
0.295571625948606
0.613107031309967
0.26482178192794975
0.5016180160417603
0.23705984601944521
0.24480139319562425
0.2866649315064783
0.282283345033061
0.3612042455452285
0.2604281100190018
0.2288743262525851
0.2671476119315285
0.2578838310380994
0.28983310890500535
0.2573377627606602
0.28673907534503956
0.225968429799717
0.2578838310380994
0.2716353263630677
0.26520501056519746
0.3260035460907425
0.24510611921757508
0.3424646963529512
0.2345498099874911
0.2547435716646369
0.2782433375851485
0.33081568261094185
0.2880838418186698
0.33961013731733897
0.24652471989766309
0.30191211253173234
0.23809672758759176
0.2911792235027493
0.24703278467773152
0.23315787500669347
0.23611525844052333
0.2688468784570002
0.31050270430321975
0.27808855032449836
0.31804470357813236
0.2399357406239256
0.33690040319085024
0.2940740836245559
0.326653329150925
0.28729054834349604
0.3182762556072886
0.27268087764962823
0.24291893886095875
0.2585104401746998
0.2790660428550196
0.24310068013638436
0.22942341052026047
0.37156064709477865
0.29905024834328875
0.2847064593736959
0.23934385264197935
0.23579164128362964
0.2619644044086245
0.30234683118920913
0.24702328055023157
0.2821899858886687
0.7006888553348025
0.3145166101114014
0.21558368276359707
0.27918815603114294
0.2500622981463981
0.33961013731733897
0.28204089518874076
0.30815061255634574
0.26836429748494334
0.2668122034889679
0.27882745877080556
0.29445268510341366
0.23740189182105617
0.529194788107085
0.2452271290096426
0.2698057174134633
0.22838618737024777
0.26421438612775305
0.24801406276284776
0.25535870721929615
0.2309557935863331
0.29302982240544406
0.3831562156673941
0.25815402821349415
0.30326348238969014
0.32541931752777553
0.26281210477450384
0.2261802983551411
0.2505076573313154
0.25465908252046837
0.2841719433540131
0.2815058911434246
0.2438937374200083
0.2275673749240033
0.2688468784570002
0.26424096892675303
0.26901390711054823
0.2530127468259024
0.4470789499394171
0.2633466466485043
0.23701452892122538
0.2763205994126917
0.2476767866474254
0.23657912557947816
0.32306809497458755
0.2786609862440904
0.2828150665977343
0.24205952635030945
0.24764472182793
0.32648811473502093
0.3433174462954117
0.2703833423478404
0.2565575803707488
0.2294162029494653
0.291640877875454
0.26128801294925597
0.24702328055023157
0.3831562156673941
0.3026398249602926
0.2880838418186698
0.32551452889548044
0.27080721717744677
0.30234683118920913
0.253814030183651
0.2810393976848771
0.2829069295107329
0.23186093615306802
0.2915391862607387
0.24174476317595117
0.5284456884321694
0.2736101712392312
0.31887043451445196
0.2578838310380994
0.5838443586556532
1.1381510480957358
0.2535454940745748
0.25162505523447365
0.283873721674361
0.25844135295165144
0.25293285130422904
0.25297946601924537
0.33690040319085024
0.5077224516605474
0.3488664988133657
0.2786609862440904
0.39690487678683173
0.25271675696187124
0.24570053495766633
0.28983310890500535
0.24047398334901085
0.2443692736388863
0.22440795295691118
0.26370580340015487
0.25005023704756446
0.25291190660629853
0.249141115229497
0.24529679900279808
0.26392189504261854
0.2779299674012898
0.25844435975431196
0.2345498099874911
0.31050270430321975
0.24241123471511555
0.46255046502933733
0.319686482107788
0.3014507235906294
0.2638586062382007
0.24788235178136686
0.25312354141385573
0.2601543831783941
0.25938973423649053
0.2955290737222919
0.2911792235027493
0.2294397701113851
0.3014507235906294
0.2750825924326021
0.32541931752777553
0.2601543831783941
0.27412481186590126
0.24467734119382337
0.5034922537754989
0.24015960577352966
0.2750825924326021
0.3220230179683323
0.24962480660149844
0.2940630561542386
0.2649317361519479
0.2606573763569471
0.30815061255634574
0.23186093615306802
0.27340866110064943
0.24516331899469315
0.24977264935380303
0.28394532277752327
0.39511754442354496
0.23339173111959052
0.2504551781578499
0.3057206853706313
0.2779299674012898
0.22356969425636325
0.2802527318567929
0.22360624234617668
0.2677099419140127
0.2940740836245559
0.3028569283144155
0.2510813111644001
0.24037657877175989
0.2868768882790355
0.28790172338899567
0.26880803479136717
0.5530168001648089
0.3443475276308295
0.23618551817408764
0.22414115985569621
0.27882745877080556
0.3220230179683323
0.23249271263755386
0.21896876924120723
0.38593401455043935
0.32335993190169554
0.249141115229497
0.5016180160417603
0.25441922873022316
0.255944677831279
0.26392189504261854
0.5027196374405868
0.24336971498200097
0.2635148507076035
0.24424006012786778
0.23766834311279275
0.2345498099874911
0.24516331899469315
0.2716353263630677
0.24401545907983327
0.23819383402793823
0.243813731883634
0.28693751633966025
0.25985238435646424
0.2758694524029422
0.2623106789037245
0.4861514476288349
0.27412481186590126
0.23410337197862452
0.31122606528639213
0.24112388145548763
0.2910795920366286
0.26298480859180007
0.315479152457184
0.24336971498200097
0.2508616538878112
0.2635148507076035
0.2557801167365186
0.2345498099874911
0.32477168980584226
0.2430049684248205
0.2911792235027493
0.2623106789037245
0.24000303382464172
0.2580082199332215
0.2403221621484493
0.2332681884301469
0.24480139319562425
0.23475969500164645
1.0089179276893123
0.24443943158272813
0.2465028483028379
0.41534881334100165
0.2931843317158383
0.27464093870995654
0.5989494851222055
0.45859980509546167
0.44593644296778345
0.2585104401746998
0.32551452889548044
0.23798476722155637
0.3329291815939105
0.32477168980584226
0.40982418380158775
0.2715057173237452
0.25386250648518066
0.25306255682298445
0.291640877875454
0.36682346862271015
0.2509161857352824
0.2623106789037245
0.28320271851825646
0.2404837812452066
0.23854927053771766
0.31810391603065935
0.3049494423991098
0.24178415493446934
0.23097537071493346
0.28066579292884425
0.26039716786363865
0.2870480233075998
0.21806354747854315
0.2527421178026101
0.27034216952013423
0.25699694858457156
0.25665233731562526
0.2727050825876257
0.26298480859180007
0.48934176825429465
0.5328675866072071
0.22360624234617668
0.2578838310380994
0.2949911199384473
0.26226219362782016
0.2573377627606602
0.24235785271976934
0.260549803088448
0.26311085025346476
0.263648896645842
0.26420994636675355
0.28983310890500535
0.24015960577352966
0.2790660428550196
0.24389177890748737
0.2557801167365186
0.280505921440784
0.25216157370805864
0.280685877583454
0.2605765120424787
0.2623106789037245
0.26520501056519746
0.24652471989766309
0.3057206853706313
0.2847064593736959
0.2647140617380083
0.2750825924326021
0.23530481318673305
0.36682346862271015
0.3118294547879813
0.26726548584672855
0.23602412094620345
0.26213524929448806
0.28358159496331115
0.2802527318567929
0.26579334746648936
0.41772750338228337
0.3010990653094348
0.24241123471511555
0.2622096557487014
0.24516331899469315
0.2400866449250142
0.27633675009298686
0.35508691203636367
0.2577338169726253
0.2698571727742373
0.39690487678683173
0.2394568206492686
0.2307087885435131
0.41320621453097406
0.28358159496331115
0.26298480859180007
0.39511754442354496
0.2625686084287396
0.3256449701242711
0.2452271290096426
0.3154773431657778
0.3675496233811146
0.2689238639836544
0.3313572472643824
0.25648166357452584
0.29064867782259163
0.27500922787390225
0.3783935973773425
0.2504551781578499
0.24401545907983327
0.24224412684809185
0.24015960577352966
0.22560309639363094
0.24436699517416804
0.5530168001648089
0.2396522914279631
0.26162466742849255
0.44593644296778345
0.27833704913232915
0.40982418380158775
0.2510813111644001
0.2866649315064783
0.2665952805853635
0.25844435975431196
0.24017156732282546
0.23295754523782827
0.291640877875454
0.24064608071843585
0.3040242444008042
0.5010331044428951
0.26438079852946206
0.2917562181948934
0.31936519125107565
0.23106051044809783
0.2750825924326021
0.26923913057267657
0.23778352726453167
0.27034216952013423
0.2604281100190018
0.41320621453097406
0.23206821211144293
0.3010990653094348
0.2548419294770323
0.2395922111534853
0.293185203118435
0.5016180160417603
0.2619644044086245
0.26880803479136717
0.2779299674012898
0.3612042455452285
0.24238712682211916
0.2688468784570002
0.25844435975431196
0.415621852992061
0.23447402189637198
0.2728877723812911
0.25774274006731024
0.24353645795647702
0.23186093615306802
0.3097776431860268
0.29815778144371996
0.2588610588860235
0.2797982214082925
0.2689238639836544
0.249141115229497
0.25762952874074296
0.2728877723812911
0.26141298040893546
0.2612362490145046
0.23818606426778524
0.32541931752777553
1.426710715715743
0.26392189504261854
0.2688468784570002
0.26137465455731085
0.3359303172141274
0.2694652139424393
0.2550636038662268
0.26223874472440295
0.23709034567081405
0.6311318491836413
0.24480139319562425
0.4372194468238955
0.285474813473773
0.26699177954812847
0.2857433644675288
0.29993209239731056
0.4372194468238955
0.2813884777477449
0.27310502932765496
0.2910795920366286
0.26520501056519746
0.23315787500669347
0.28673907534503956
0.32306809497458755
0.4558300250092308
0.2797421367472762
0.33310318442277503
0.28204089518874076
0.26191002426202376
0.28647346402258966
0.31033567460186123
0.24291893886095875
0.25472847873500387
0.24096652244221
0.3521538605444287
0.2596989698817204
0.2821899858886687
0.27571321826995654
0.23705984601944521
0.23579164128362964
0.33081568261094185
0.23206821211144293
0.22838618737024777
0.2563359265187718
0.26370580340015487
0.2347027042056415
0.25340707744897106
0.24328046661075778
0.24424006012786778
0.2688645850902539
0.2972846303589325
0.26745898996607337
0.28185552058974356
0.2797421367472762
0.4283543655541701
0.26141298040893546
0.2547435716646369
0.3014507235906294
0.24424006012786778
0.21277833713213118
0.2910795920366286
0.2396522914279631
0.3639566615561364
0.36682346862271015
0.23106051044809783
0.2974900632609739
0.286389381537497
0.26690691170477515
0.25946970593344326
0.3256449701242711
0.26438079852946206
0.25938973423649053
0.3154773431657778
0.2649009532046251
0.25005023704756446
0.28204089518874076
0.2828150665977343
0.7897901333062696
0.2412729138685515
0.2557801167365186
0.29240255857164704
0.24063119780532088
0.26714964464820784
0.27684149724686385
0.2671476119315285
0.27541352028064886
0.23186093615306802
0.3176919618767125
0.33310318442277503
0.2973739925295557
0.3184603199275754
0.2750825924326021
0.23545406640649763
0.26838261587433526
0.2870480233075998
0.26556439995299225
0.2910795920366286
0.280505921440784
0.2649009532046251
0.49678665016377327
0.2950483703573459
0.2871375113583443
0.32306809497458755
0.25699694858457156
0.25293285130422904
0.25271675696187124
0.2476767866474254
0.26491119114962863
0.2976997725352651
0.2852403823251754
0.3184603199275754
0.5936866083199729
0.24225341507571152
0.25648166357452584
0.24788983684519017
0.5328675866072071
0.30326348238969014
0.24702328055023157
0.24819797645643807
0.7778851802425976
0.29240255857164704
0.3097776431860268
0.249141115229497
0.3176919618767125
0.24127180924419594
0.26141298040893546
0.25907063025889715
0.3145166101114014
0.23710242986772304
0.24721887301694218
0.2802527319864235
0.24443943158272813
0.2556078792838344
0.32335993190169554
0.2397533722699436
0.2541122268883967
0.25586929627419563
0.26236459527015726
0.30326348238969014
0.23731039091859638
0.25998047225682963
0.30140013943717564
0.2905441315724128
0.27136465904935314
0.29736589165388644
0.2573377627606602
0.26527179137819973
0.2604281100190018
0.24819797645643807
0.33942098443807456
0.32551452889548044
0.40982418380158775
0.2828150665977343
0.24764472182793
0.284084200777832
0.24648955824401297
0.2345498099874911
0.4861514476288349
0.26149692484374404
0.30234683118920913
0.2673495251590514
0.23409696919948436
0.28066579292884425
0.2976046143949609
0.2763205994126917
0.24652471989766309
0.28983310890500535
0.319686482107788
0.3010990653094348
0.31810391603065935
0.326653329150925
0.2950483703573459
0.26492491371737
0.2847064593736959
0.2728877723812911
0.3182762556072886
0.2687247263606523
0.2672577210068385
0.25314511406758544
0.49678665016377327
0.34831110526331155
0.24424006012786778
0.24413423315778354
0.3521538605444287
0.2557801167365186
0.26226219362782016
0.2560533129943595
0.5237536197422292
0.23399017806444564
0.24151879693856898
0.31887043451445196
0.26838261587433526
0.2601543831783941
-0.04509085728367008
0.8744566598449568
-0.04509085728367008
0.8744566598449568
0.21507071701857822
0.7090448409404784
0.21507071701857822
0.7090448409404784
0.21507071701857822
0.7090448409404784
0.21507071701857822
0.7090448409404784
0.20486335575509193
-0.8944517302206162
-0.9338192505919598
-1.13734511636026
0.42306409588263016
-0.8759314566896786
-1.8202470920338047
-0.16829624482565164
-0.8607399515698545
-0.5751209409649937
-0.017988091487536422
0.14306942738136152
-1.1902920013576657
-0.4687537407237485
-1.1822517404129735
0.1210959196438732
0.014595252357640353
-1.0636070391705257
0.25934781045041316
-0.22073108868551283
0.09527194419192471
-0.028091596524417946
-0.1272256871033872
0.16798637747555045
0.6789370237281891
0.6491777284996222
0.16798637747555045
0.6789370237281891
0.6491777284996222
0.16798637747555045
0.6789370237281891
0.6491777284996222
0.16798637747555045
0.6789370237281891
0.6491777284996222
0.16798637747555045
0.6789370237281891
0.6491777284996222
0.2319401103263436
-1.055435132455708
-0.9958971742882133
-0.5589817185401924
-0.027378439922831246
0.08788852874437877
0.2526195928519792
-0.26424603666624236
-0.25330017481605516
-0.4017874360266275
-0.29317463359806134
-0.12274649821394396
-0.09526950040675748
0.2526195928519792
-0.26424603666624236
-0.25330017481605516
-0.4017874360266275
-0.29317463359806134
-0.12274649821394396
-0.09526950040675748
0.22290731805007116
-0.8425882432170432
-0.8134107289765933
0.24929683675099518
0.06543791845937158
-0.4898423351086805
-0.35825006497575723
0.2324880349445829
-0.6183153210919362
-0.032327527747568835
-0.2933695755435816
0.013427966440400231
-0.2743224390173252
0.2067185775445507
-0.13073309179530607
0.1273706090093949
0.21945371873028072
0.1610355704018571
0.12076558091860116
0.2067185775445507
-0.13073309179530607
0.1273706090093949
0.21945371873028072
0.1610355704018571
0.12076558091860116
0.2324880349445829
-0.6183153210919362
-0.032327527747568835
-0.2933695755435816
0.013427966440400231
-0.2743224390173252
0.24985168226139098
-0.4248301959851958
0.21197323470706003
0.057037702407805355
0.03577016832438522
0.0058986325563821235
0.1892634575293924
0.7353839611771269
0.2150115645796408
0.8065987398950097
0.1892634575293924
0.7353839611771269
0.1892634575293924
0.7353839611771269
0.2150115645796408
0.8065987398950097
0.2150115645796408
0.8065987398950097
0.1892634575293924
0.7353839611771269
0.1892634575293924
0.7353839611771269
0.22152727475537448
-1.0553800248190763
-0.8659391057073184
-0.9696595797136726
0.18056382139993588
-0.14326329836123192
-0.8119514516846127
-0.9320221825352727
-0.1426433223241694
0.22129378816763265
-1.1418571108459976
-1.0033830225397173
-1.324375552664155
-0.03486967143938011
-0.5662211604417684
-1.2374901195211974
-0.16870437951699754
-0.30534997430778626
-0.8320695035560975
0.20725231211486625
-0.30339795437884287
-0.1555893573216302
-0.2599352358274477
-0.25350190768813347
0.11042035647640357
0.01903678784494578
-0.2031069630688409
0.20725231211486625
-0.30339795437884287
-0.1555893573216302
-0.2599352358274477
-0.25350190768813347
0.11042035647640357
0.01903678784494578
-0.2031069630688409
0.22232153359730336
-0.4417498231144234
-0.10263188516457762
-0.5970351912247923
-0.04760957814967799
0.06452378275588372
-0.23344665912597662
-0.17664312886491879
0.19020180757960714
-0.7275527033892949
-0.17628311467110785
-0.15003049349106684
0.16308514885219128
0.058949405035092946
-0.2343674002771707
-0.6917842750332598
-0.6606589294878604
-0.6406337807957427
0.19020180757960714
-0.7275527033892949
-0.17628311467110785
-0.15003049349106684
0.16308514885219128
0.058949405035092946
-0.2343674002771707
-0.6917842750332598
-0.6606589294878604
-0.6406337807957427
-0.09893272187157891
0.43394675187968534
0.44454044348167215
0.22828791445510882
-0.09491703175245486
0.2680947922677162
0.22828791445510882
-0.09491703175245486
0.2680947922677162
0.22828791445510882
-0.09491703175245486
0.2680947922677162
-0.09893272187157891
0.43394675187968534
0.44454044348167215
0.22828791445510882
-0.09491703175245486
0.2680947922677162
0.23060042831071997
0.514517906111737
0.23060042831071997
0.514517906111737
0.1553954313633779
0.5473920158435794
-0.02119940931964863
0.6077349468962416
0.23280980528006054
0.4675749696422875
-0.03570382963506191
0.6693580396778742
0.23280980528006054
0.4675749696422875
0.1553954313633779
0.5473920158435794
-0.02119940931964863
0.6077349468962416
0.23280980528006054
0.4675749696422875
-0.03570382963506191
0.6693580396778742
0.23280980528006054
0.4675749696422875
0.23280980528006054
0.4675749696422875
0.1553954313633779
0.5473920158435794
0.23060042831071997
0.514517906111737
0.1553954313633779
0.5473920158435794
0.23060042831071997
0.514517906111737
0.23280980528006054
0.4675749696422875
0.23280980528006054
0.4675749696422875
0.23060042831071997
0.514517906111737
0.1553954313633779
0.5473920158435794
0.23060042831071997
0.514517906111737
0.23188541619252648
-1.1426524413538581
-1.1784897064436415
-0.14639742868816258
0.015390517245974292
0.06608149532604878
-0.3482480331141573
-0.3539388577942392
-0.8374814709319555
0.2126898307594267
-1.1130353734587455
-1.1591265491773446
0.07109483505253267
-0.07882425229032135
-1.538249591533757
0.07056431686283114
-1.197357562675732
-0.8444213159980913
-0.2922770713640501
0.22592332668011486
-0.7981675466407516
-0.6636353600040352
-0.6031938070570514
-0.6351489913909016
0.07173031144641313
-0.08461025176191672
0.07190592682555597
-0.31590064570189164
0.20987253046327667
-0.6747330627831833
-0.683079237438245
-0.15253174141962936
0.2940067111322108
-0.03925330177717373
0.025904219432049683
-0.08608170676556424
-0.382683423703851
0.20987253046327667
-0.6747330627831833
-0.683079237438245
-0.15253174141962936
0.2940067111322108
-0.03925330177717373
0.025904219432049683
-0.08608170676556424
-0.382683423703851
0.261714111461906
-0.052245515558486624
0.102522592655686
-0.47951062275355605
0.261714111461906
-0.052245515558486624
0.102522592655686
-0.47951062275355605
0.21413834339042134
-0.3904767681562114
0.026824059016391854
-0.1344298983559691
-1.561226232287306
-0.8473355453390203
-0.22163344426214915
-0.8439963810625472
-0.004903024313012342
-0.4342819774959452
0.23341441089255874
-0.40247524691267267
-0.012502148924795585
-0.0618333482264913
-0.6339059638101964
-0.4279494206282494
-0.21556504600577037
-0.3965971539520624
0.23341441089255874
-0.40247524691267267
-0.012502148924795585
-0.0618333482264913
-0.6339059638101964
-0.4279494206282494
-0.21556504600577037
-0.3965971539520624
0.21030760902260084
-0.4047960170845752
-0.3108022083376799
-0.023529228542845726
-0.2624261317581404
0.11153405580242902
-0.3842131040222742
0.23757988265889188
-0.17039867368068565
-0.012410253153808663
0.5715078751391622
0.21170811798140682
0.5556948868210863
0.21509362793952597
0.3867845611664651
0.21509362793952597
0.3867845611664651
0.1844290037493
0.49640049639332556
0.21509362793952597
0.3867845611664651
0.21170811798140682
0.5556948868210863
0.1844290037493
0.49640049639332556
0.21509362793952597
0.3867845611664651
0.21170811798140682
0.5556948868210863
0.21509362793952597
0.3867845611664651
0.21170811798140682
0.5556948868210863
0.21170811798140682
0.5556948868210863
0.1844290037493
0.49640049639332556
0.1844290037493
0.49640049639332556
0.1844290037493
0.49640049639332556
0.1844595157629185
0.6605620201679181
-0.012410253153808663
0.5715078751391622
0.21509362793952597
0.3867845611664651
0.1844290037493
0.49640049639332556
0.21170811798140682
0.5556948868210863
0.1844290037493
0.49640049639332556
0.21509362793952597
0.3867845611664651
0.2097216922039304
-0.9871341610941505
-0.8441233295937387
-1.239125511727832
0.12072558706812794
-0.7707967231640608
-0.043170208257085334
-1.5183118765162504
-1.0796260075704003
-0.8403294307727115
-1.1836739466687243
-0.8393081427971513
0.19658826234082327
-0.6771137387721881
-0.8436612048402073
-0.5189675448154925
-0.021864008511968003
-0.0815763621669281
-0.3722539692333666
0.10576300731541191
-1.1088223914072952
-0.33029519800201157
-1.169131310194262
-1.0063411139379221
0.24277611304260271
-0.13851746809465
-0.9712695780520899
0.062121346423053767
-0.08018751336800717
0.13546493465885381
-0.1410558900435419
0.2657308429083597
-0.39030375226375524
-0.6181291906128779
-0.0577376492842078
-0.6879183630577086
0.5115416858481708
0.5477160537922344
0.6635804307788361
0.07963390791389985
0.40181650186104306
0.37077278496759986
0.507161027553121
0.13771727950914014
-0.10614544373328864
0.35997665757509967
0.005357797841226205
0.2939592000256627
-0.04511537185069529
0.8007350917878011
0.20888672786282475
0.6128761509683267
-0.04511537185069529
0.8007350917878011
0.20888672786282475
0.6128761509683267
0.20888672786282475
0.6128761509683267
0.20888672786282475
0.6128761509683267
0.20888672786282475
0.6128761509683267
0.2041636442180413
-0.17900413643873647
-0.6598604403122856
0.1530784628823775
0.209512863681884
0.03239795368443556
0.2041636442180413
-0.17900413643873647
-0.6598604403122856
0.1530784628823775
0.209512863681884
0.03239795368443556
0.20986260226090134
0.4035457205348178
0.2123553026206026
0.5723754649819649
0.2123553026206026
0.5723754649819649
0.020881400079865598
0.7225028281272593
0.20986260226090134
0.4035457205348178
0.020881400079865598
0.7225028281272593
0.2123553026206026
0.5723754649819649
0.2123553026206026
0.5723754649819649
0.2382959045929819
-0.45105761583338966
0.15657616214227407
-0.5195923641040862
-0.7904803949142668
0.09666553626873124
-1.0240698547782303
0.22447786939385952
0.12885522976064917
1.0293399949563167
-0.48655178671436056
0.15331694627970954
0.22075766706860642
0.15381160949198996
-0.4979728191595494
-0.1050918460709558
0.09122670329696297
-0.19377783408107957
0.22075766706860642
0.15381160949198996
-0.4979728191595494
-0.1050918460709558
0.09122670329696297
-0.19377783408107957
0.2262956333523003
0.23277331873741106
-0.05432112315094354
-0.19520515106309866
-0.0028277394324525917
-0.10029002109086112
0.22020028573945516
0.23929298469590257
0.10220848915420053
0.19881202916131352
0.0373516591972583
0.22020028573945516
0.23929298469590257
0.10220848915420053
0.19881202916131352
0.0373516591972583
0.13891599240824215
-0.4226764163422314
0.20985140127531995
0.12639492923165963
-0.28274857416271876
0.25912155737535325
-0.15590042059760342
-0.232978404454632
-0.37605796372368916
0.13891599240824215
-0.4226764163422314
0.20985140127531995
0.12639492923165963
-0.28274857416271876
0.25912155737535325
-0.15590042059760342
-0.232978404454632
-0.37605796372368916
0.12072613575117731
-0.09692500209667845
0.11798765075771361
0.24941168344498646
0.20637951208648128
0.2883137604353503
-0.053871003350162684
-0.04610616446206302
0.2706628392872217
0.39008334451762816
0.4396070298425076
0.1710617273719769
0.2952183249623493
0.16997656073457645
0.2438642243266312
0.14281822419539214
0.27921873010067216
0.1503238425352664
0.3570984237739584
0.12019411744746243
0.20156025899595315
0.3865217413419561
0.3182507938552249
-0.06053020921890102
0.5335813249619017
0.15500277736390194
0.15702094549052742
0.5984868178445524
-0.06053020921890102
0.5335813249619017
0.15500277736390194
0.15702094549052742
0.5984868178445524
-0.06053020921890102
0.5335813249619017
0.15500277736390194
0.15702094549052742
0.5984868178445524
-0.06053020921890102
0.5335813249619017
0.15500277736390194
0.15702094549052742
0.5984868178445524
0.10171786509475775
0.3296850663052701
0.18660053901718368
0.3677983292918377
-0.03715821785584165
0.2006137275591428
0.015147341917968776
0.31541146650596563
0.14043642554467878
0.295171586041404
0.3252480085965344
0.2006137275591428
0.015147341917968776
0.31541146650596563
0.14043642554467878
0.295171586041404
0.3252480085965344
0.20880485720412784
0.15813326730654392
0.4230957893253547
0.03753038842306799
0.27363815020237714
-6.193888610471852E-4
0.17291092292923152
0.3073418893475035
0.6124125324301137
0.15417869632176018
0.3606966282833891
0.1329662231736261
0.18601176901919925
0.05851766041264566
0.6446942796087471
0.07700825994099678
0.47485606158628685
0.22296849261321774
0.14213447280042893
0.14762958747490462
-0.14614121599601576
0.1141443742094648
0.11417596555463594
0.437041448508617
0.5051744892143231
0.11417596555463594
0.437041448508617
0.5051744892143231
0.11417596555463594
0.437041448508617
0.5051744892143231
0.11944919660132731
0.41371972578516014
0.43191280634537216
0.44684190952910946
0.2249304150110561
0.22869591381405258
0.028643675931762473
-0.04962621640152493
0.21929927003176755
0.24475872202288293
0.4158481168493373
0.7074379895957142
0.07803370701212743
0.4707008603893418
0.22640041089991883
0.4902948382930727
0.09719104461783112
0.4584662563214356
0.2559150761161712
0.5739871565441951
0.22969718185302204
0.37506421066143836
0.3960581756312816
0.5813979826220331
0.1777698493950265
0.5768507753406407
0.24087825186825534
0.21299671259273972
0.2314553086646496
0.27767854934203584
0.20311301452163472
0.46392735442404454
0.29723644400515326
0.4953065382305752
-0.27377845469036016
1.0186330166521709
0.24397667191112235
0.2545144288890569
0.07803370701212743
0.4707008603893418
-0.7535459510852011
0.8143660653213941
0.2616019301442852
0.09146664317007326
0.24736969592675992
0.41549832861699015
0.20502106391631963
0.43320389036098733
0.21994868364178705
0.3214477426183415
0.39115758692734387
0.561011188044829
0.2987649626000039
0.47590270072184454
0.23723806964882854
0.48315554077012624
0.22640041089991883
0.4902948382930727
-0.1575541305725558
0.5892109974473985
0.2560540950543944
0.7595072334241585
0.20602857610714784
0.39274257164321336
-0.07980855114301974
0.5423528669304426
-0.07980855114301974
0.5423528669304426
0.22640041089991883
0.4902948382930727
-0.5349590792687592
1.7966884458424897
0.26517998374400614
0.08161618115348737
-0.6070638113966863
0.6305391879551383
0.2252203910294372
0.36992966351874945
0.22640041089991883
0.4902948382930727
0.20602857610714784
0.39274257164321336
0.2987649626000039
0.47590270072184454
0.13987887244055316
0.5290801035997665
0.13987887244055316
0.5290801035997665
0.24397667191112235
0.2545144288890569
0.24666947212559037
0.2761354970525432
0.13987887244055316
0.5290801035997665
0.1696423274293078
0.9526422821881929
0.24736969592675992
0.41549832861699015
0.271094239137848
-0.2934816598200848
0.3723203435113377
-0.3471348129922391
0.058585390894196676
1.231418757630157
0.08870966826885447
0.45644025465134236
0.1696423274293078
0.9526422821881929
0.23106188154595142
0.047964314305861275
0.2170335017513662
0.4241554213168819
0.3398036302003781
-0.1254857385570685
0.19557054001321839
0.4158448182051791
-0.19933490749979488
0.8888753690697236
-0.028670224418076533
0.6309432764364459
-0.07635189525781964
0.5601605440753205
0.1828367730418516
0.17880128060909664
0.3672165499569385
0.21770828216256347
0.03751117852448993
0.22849193509682503
0.24137439646478584
0.17816210413003852
-0.1063502065462552
0.22533767797347026
0.1127561446726796
0.08744519347604773
0.27270369787246024
0.1033300266106085
0.3799812221578616
0.7880845371580582
0.29523112438362925
0.24051675120096372
-0.7565985907787934
-0.3996502241822379
-0.056433771041786256
-0.35642495972929333
0.21545938326268865
-0.7325560488653735
0.2286569825887051
-0.014132176534742469
0.21010531499228396
0.015742057951191636
0.04110856458942539
0.21188653639866067
0.10604709209384926
-0.3830443757361153
0.19966363152130565
-0.05858067745341072
0.0902212960842258
1.1901287287486542
-0.030240245574901924
1.2560089558519087
0.21733199620681037
-0.046336107417713907
0.03131528301626203
-0.34984107027162986
0.10246088801450164
-0.27625619444381344
0.21733199620681037
-0.046336107417713907
0.03131528301626203
-0.34984107027162986
0.10246088801450164
-0.27625619444381344
0.23910610325042445
-0.1629574424107167
0.16126649232469012
-0.09303452604463361
0.24149670656854272
0.23910610325042445
-0.1629574424107167
0.16126649232469012
-0.09303452604463361
0.24149670656854272
0.21007960973729803
-0.08638494905740576
-0.06523571519009122
0.22157915942598
0.2110647925435709
0.2909181196385398
0.21951706517714384
0.28024125288888924
0.1620146934400668
0.21932162130529617
-0.23611981238987464
0.27359450564900245
0.1522945779892942
0.34856111664083667
1.155477748827558
0.211453402651522
0.46726449812174353
-0.050993511577080916
0.21003184695731178
0.5133118554383009
0.04274891668866026
0.22748609762996116
0.20644103040638848
0.11003904760568213
0.22558221718198251
0.5918356438628212
-0.029371319075095225
0.15783447734767322
0.22086670507916684
0.26782466759157797
-0.6976818511490303
0.33082965530658154
0.2744672954878211
0.22086670507916684
0.26782466759157797
-0.6976818511490303
0.33082965530658154
0.2744672954878211
0.2149936361325746
0.7716737436049852
-0.44342886211417204
0.2149936361325746
0.7716737436049852
-0.44342886211417204
0.22477020419122948
0.1347273685629256
0.05423930358684476
0.22477020419122948
0.1347273685629256
0.05423930358684476
0.23111603592228522
-0.4855516811065739
0.21627498460914807
0.22780038964196792
-0.26230470642665704
0.24048988837330987
0.22610385364949648
0.12161415746838905
0.05641026107965413
0.24023847521993458
-0.27029830636526964
0.20505941105506953
0.23226516631465513
0.18264835245374458
-0.08486304312739884
0.22274064928829634
0.2635807932095727
-0.0026943597159806384
0.2038203582817393
0.09331006900250384
0.14603783732423808
0.08135017876348791
0.2674819285229577
-0.023721794720382543
0.4439288014601358
0.23118592025952195
0.2908296043651441
0.6254613290302428
-0.03271116585106108
0.4557090397513169
0.7564920059176833
0.22802819723025777
0.30031535177969054
0.09188787810634284
-0.2938123691093509
0.10930157913582192
0.5016737196333246
0.6997013333352992
0.5263763270526213
0.16866623466398345
0.5208174064315919
0.05212555613757397
0.4812876470078203
0.15071640394793276
0.4252472167895629
0.09768783519887157
0.4825360174700114
0.2670096836144145
-0.09621095824426683
-0.11311264161448255
0.5307176549217789
0.14987206952791432
0.4326981151973226
0.04629724597547152
0.5801240174872004
-0.3741692080338891
0.6642913293681805
-0.09453704190126416
0.5177530091754698
-0.07584694814009714
0.5048463579492966
0.2422298028194604
0.19426260176841256
-0.07584694814009714
0.5048463579492966
-0.11056463551838383
0.6047646877146139
0.25995657862050175
0.0856755539942307
0.22122189823755617
0.2420825723602454
0.19811184958090616
0.30010890928863254
0.22122189823755617
0.2420825723602454
0.2422298028194604
0.19426260176841256
-0.5412356957707767
0.679999832414811
0.2003623320768238
0.4120682650164942
-0.272001707566393
0.5781942110946144
0.06604450999813571
0.46978820931811155
0.015259084661041578
0.5128785191738517
0.05509197726979933
0.6778592923183935
0.16127311448314305
0.4074814797304775
0.21529821448295575
0.31796086549208186
0.23262229236726414
0.19797870914723964
0.20551941505637378
0.30035822187985484
0.15726063668627707
0.9366880443229911
0.28753020258379114
-0.21545179394673203
0.2449889007914736
0.17216900279726835
0.23996950948980836
0.20779079069113687
-0.07584694814009714
0.5048463579492966
0.023350173844357548
0.5411856658538614
0.015259084661041578
0.5128785191738517
0.22502162118242058
0.2440520165516844
-0.0285471186897742
0.6000421304020547
0.1816975752992127
0.3276068870288417
0.17941098577813658
0.3922613334317179
0.3625225015949731
-0.019214837398059615
0.24920040581846933
0.17799768040681277
0.2756013326287648
0.05329241059520663
0.20551941505637378
0.30035822187985484
0.24754024591035773
0.14953903965897966
0.14903603513631142
0.440186455631558
-0.11311264161448255
0.5307176549217789
0.3019715390279962
-0.08820216602260539
-0.26997998299784637
0.6111089161656308
0.42737822470606596
-0.18098974050997982
0.2967339139131877
-0.5620846999764587
0.3072165272097252
0.16699694051021421
0.19390368286232862
0.35706334137827
0.07403236526854458
0.4609232870908362
0.36194958966805857
-0.004805270783003709
0.19811184958090616
0.30010890928863254
0.22353395207475033
0.23924537787671238
0.15726063668627707
0.9366880443229911
-0.11311264161448255
0.5307176549217789
-0.06473873334250681
0.6069578817229502
0.16866623466398345
0.5208174064315919
0.14770456669932336
0.3805242739224138
-0.0396805754032904
0.5735070868619215
0.21540676710387116
0.4309792934464954
0.1816975752992127
0.3276068870288417
0.17941098577813658
0.3922613334317179
0.2565278668176362
0.1195052549965571
0.16132938281986411
0.2502446142918336
-0.0987962747286399
-0.22660638166921995
0.20160082748699223
0.8604529097990824
0.08250610467371321
0.14594198903364797
0.14160254053272978
0.1085496648698707
0.232778461323604
0.06545298253520904
-0.0770848368156256
-0.1068740148008651
-0.09827876767755103
0.14594198903364797
0.14160254053272978
0.1085496648698707
0.232778461323604
0.06545298253520904
-0.0770848368156256
-0.1068740148008651
-0.09827876767755103
0.2396506191191345
0.16286044406600436
-0.3328729392250172
0.23132316397347463
0.12953927536136903
0.0633469230962138
0.22710372451349928
0.13891535932213395
0.09240019298010532
0.21251423729324392
0.23438528428916305
-0.24423086445648334
0.23428391361461964
0.048111755147558895
0.13628373380933612
-0.10648135924725464
0.7748105969873362
0.38327695886481716
-0.11908760990214043
1.0201374780896206
0.41631371334610756
0.2824161878674285
-0.5068135263222181
0.08065946888009683
0.14704264153837518
0.2824161878674285
-0.5068135263222181
0.08065946888009683
0.14704264153837518
0.2824161878674285
-0.5068135263222181
0.08065946888009683
0.14704264153837518
0.1104987244152004
0.5906276145415545
0.7461360087066612
0.25999623885010154
0.8905127682648288
0.10255296828854533
0.47100939552917076
0.10255296828854533
0.47100939552917076
0.2124045058479829
0.7167446735122007
-0.0386771158762384
0.5005767113461973
0.2572799812504916
0.8036541472296124
0.17031927620237186
0.548091132878684
-0.0386771158762384
0.5005767113461973
0.17031927620237186
0.548091132878684
-0.0386771158762384
0.5005767113461973
-0.0386771158762384
0.5005767113461973
0.17031927620237186
0.548091132878684
0.22101593810759185
0.178900888751171
0.265117152951265
0.04534018067128261
0.1347408043471152
0.22101593810759185
0.178900888751171
0.265117152951265
0.04534018067128261
0.1347408043471152
0.18679108375918788
-0.07526143186701471
0.29827177531810384
0.21843410269636337
0.31793751889646654
0.4299989916888757
0.18679108375918788
-0.07526143186701471
0.29827177531810384
0.21843410269636337
0.31793751889646654
0.4299989916888757
0.19684986462258938
-0.17964895639748749
0.1949555948639755
-0.13723717896778473
0.044199908600145346
-0.13198651938224357
0.20062263026641017
0.18438962348293597
0.2711728901419428
0.646028547057997
0.5959860595704877
0.1895142655356095
-1.2327905825197423
0.7785366726684143
0.6689209256828395
0.5541999245395384
0.23034046164806468
0.467230050385851
-0.2701174048809837
0.327756975764811
0.059399409199887926
0.6124048794792684
0.37032100068480206
0.46306753824535
-0.35598846707161225
0.8372736040087201
0.9860188603599558
-0.01586475501812294
0.059399409199887926
0.6124048794792684
0.37032100068480206
0.46306753824535
0.1852888278959303
0.6690802263021166
0.1623859075029051
0.19611923544222754
0.6366419143368304
0.12779280309247668
0.19917372089257013
0.65338745135961
0.1578457003163082
0.2646023436750525
0.3236588688359586
0.4709752881151748
0.2646023436750525
0.3236588688359586
0.4709752881151748
0.19187465520431188
0.44444359203574074
0.6864863546529144
0.19187465520431188
0.44444359203574074
0.6864863546529144
0.1786295298488592
0.4568003617332276
0.6128171667015456
0.27610185658909625
0.1235734353919721
1.0549315531713974
0.2251131558240553
0.26883015215851574
0.11732447895509161
0.46150140401445283
0.24305558161222054
0.638498389843061
0.24013490554767106
0.17039807738955134
0.23263161683951925
0.18923052840823604
0.5288247656640297
0.2530233584967245
0.246832353971763
0.19983179172621157
0.5288247656640297
0.2530233584967245
0.11732447895509161
0.46150140401445283
0.3020736925475609
0.22990656895396905
0.5288247656640297
0.2530233584967245
0.22689110741477223
0.4494169644369303
0.031207097110708074
0.3876118375703839
-0.5364148725160767
0.9390122304371297
0.22600897013705357
0.9756811307623579
0.8853415153063477
-0.10112985884910562
-1.1517050981322792
0.5364606719392631
0.24013490554767106
0.17039807738955134
-0.9208069850037489
0.5084200664064535
0.1949612112452972
0.3566374235996623
0.24805806856829768
0.20461424307863657
0.04189377933073207
0.42785454473052514
0.2710105037537867
0.034753229283600584
0.2710105037537867
0.034753229283600584
0.24805806856829768
0.20461424307863657
0.18614426531937436
0.34984927782950825
0.25981845990778857
0.35025779952940345
0.22689110741477223
0.4494169644369303
0.22941990385989855
0.6476918637782658
0.031207097110708074
0.3876118375703839
0.2626902152779709
0.12162296117548184
0.26008498516073003
0.3325950694859004
0.04189377933073207
0.42785454473052514
0.12885478690416485
0.4015790724151653
-0.02935506900901788
0.4363404149650722
0.24805806856829768
0.20461424307863657
0.2710105037537867
0.034753229283600584
0.26277123399097413
-0.37956435889191353
0.26277123399097413
-0.37956435889191353
0.23188763896189404
0.22813111928220567
0.11732447895509161
0.46150140401445283
-0.02935506900901788
0.4363404149650722
0.30831448557340857
-0.0036921119465360905
0.20741224297286653
0.2437954314153522
0.20741224297286653
0.2437954314153522
0.5288247656640297
0.2530233584967245
0.22689110741477223
0.4494169644369303
0.3020736925475609
0.22990656895396905
0.8853415153063477
-0.10112985884910562
0.22689110741477223
0.4494169644369303
-0.9208069850037489
0.5084200664064535
0.12885478690416485
0.4015790724151653
0.22941990385989855
0.6476918637782658
0.20741224297286653
0.2437954314153522
0.2143929023684486
0.1840056844457888
0.1673434323077747
0.21087442951902227
0.21341492007056706
0.19544317806132275
0.2113869364604234
0.20853780610668507
0.16626897058069437
0.21525748101736036
0.07308910133233934
0.014547784217546463
0.3461410695038006
0.2162497355870031
0.12577983768610926
0.1295945715874609
0.40059253928161026
0.20722160681388088
0.21019117094348932
0.533819015760038
0.23226836042354376
-0.015243735503986439
0.3059491814347297
0.16867517872607554
0.31749349965048806
0.23226836042354376
-0.015243735503986439
0.3059491814347297
0.16867517872607554
0.31749349965048806
0.14057760182016643
0.6713441190414752
0.6694982917574267
0.27417911041255444
-0.10063648022890039
0.5085540465658577
0.20388280457744767
0.1665755587649187
0.564184815525664
0.25672883924233014
0.33533630273129805
0.25822682080164594
0.16930833022771372
0.0014823680527129494
0.5113536248113166
0.2743794280446743
0.27555977703005996
0.17596934726023555
0.30561735798842377
0.18770513163826152
0.314415229447624
0.2743794280446743
0.27555977703005996
-0.0750055597723726
0.49426640718748827
0.18977770613326195
0.895773003987957
0.25672883924233014
0.33533630273129805
0.22834726951328077
0.25744678577845603
-0.27223461554322104
0.44697887074482817
-0.33027450023260996
0.6311800038227289
-0.0750055597723726
0.49426640718748827
-0.25688459224851834
0.5910618063094768
0.25672883924233014
0.33533630273129805
0.24817215974039142
0.2129967640219918
0.24164208857060016
0.22870425837417796
0.1164509276089938
0.3516498466522321
0.05226371872486769
0.7016771508493944
0.29816500186788397
0.20225419179513204
0.019307566260118033
0.4194865287225544
0.09862838557115103
0.4614729787149047
-0.17486997885520567
0.5387547202333134
0.24697475100602145
0.18930917247715462
0.18770513163826152
0.314415229447624
0.29231202843597653
-0.007897959456672352
0.18770513163826152
0.314415229447624
0.25822682080164594
0.16930833022771372
0.2550162267333399
0.22362279275642802
0.2743794280446743
0.27555977703005996
-0.43666845396805437
0.6814541303439317
-0.17486997885520567
0.5387547202333134
0.18840462522635593
0.2627284066208516
0.25822682080164594
0.16930833022771372
0.19581884529603405
0.27887612964694486
0.2743794280446743
0.27555977703005996
-0.3112525363538233
0.5940080731033406
0.19581884529603405
0.27887612964694486
0.26128148539737783
0.4128836049381811
-0.03909259031297379
0.5060423782913726
-0.25688459224851834
0.5910618063094768
0.3175073599604155
0.37420663100149765
0.24817215974039142
0.2129967640219918
0.23209574430517046
0.27820926393313133
0.23209574430517046
0.27820926393313133
0.019307566260118033
0.4194865287225544
0.35813535768373955
0.25805914591952633
0.4341962341732137
0.03698081967613051
-1.144834614321288
0.5637866132058745
0.29231202843597653
-0.007897959456672352
-0.33027450023260996
0.6311800038227289
0.6209087513154559
-0.09509499550260418
0.17596934726023555
0.30561735798842377
0.17585131586217925
0.30422687840396667
-0.21838726630211033
0.9857921330572619
0.2988808845774493
0.2000622897206067
0.19556168111683975
0.38422302736285
0.2000622897206067
0.19556168111683975
0.38422302736285
0.3313580992863584
-0.37108152534823813
0.24251571084689802
0.18422224811442528
0.3381198219899079
0.2642724428672496
0.2000622897206067
0.19556168111683975
0.38422302736285
0.3089808042893367
-0.5732971081102085
0.2548110756983586
0.16078127171881057
0.3850419029755128
0.28360614000926265
0.2550136898631118
-0.7801210593087841
0.1600537351170543
0.49811047856105406
0.45769859532934887
0.22929319352499644
0.2430404240565164
0.2728276050314372
0.17423239426744963
0.16731916957159376
0.7441285383956517
0.2211100922817506
0.18041979448630624
0.431913962836489
0.004267885093353591
0.45414058089536874
0.6076318485851628
0.12613016026611107
0.5567693969692488
0.3214976626182177
0.5639609495940513
0.11586386351275246
0.35161016796534716
0.3572926652375224
0.09041680871505389
0.6204271183671526
0.10798514925876518
0.3856465020969402
0.3122226375659118
0.12151689266053232
0.8690322787861512
0.4871098057837261
0.21475134713162658
0.0696767174223518
0.6014685394281564
-0.644304394305209
0.537894829881659
0.7637194531299247
0.21942320077890579
0.17071442783988008
0.19322818405988348
0.3454225862335479
0.19322818405988348
0.3454225862335479
0.2248900025882067
0.15841522792291898
0.19322818405988348
0.3454225862335479
0.22664488147121561
0.16275285045958499
-0.019386795588139466
0.5552623027381512
-0.019386795588139466
0.5552623027381512
0.1530838063571809
0.9949541242501692
0.2413835588358272
0.7748401698775182
0.2611273705859713
0.7295474183918063
0.1033454962768043
0.9733895959967772
0.9653713728707586
0.30257405217060257
0.690012831843111
0.739077259317928
0.09009211259119689
0.8535586033814289
0.8349503567833134
0.16365678206532489
0.7988072058906281
0.0966676034364284
0.857074819130434
0.14830596234291651
0.8512220920930098
0.40528617910027664
0.6172209908278117
0.1378482237651637
0.7053921608904972
0.3077119496089485
0.6616442528665343
-0.10733940577298536
0.9146123114468581
0.40528617910027664
0.6172209908278117
0.1378482237651637
0.7053921608904972
-0.10733940577298536
0.9146123114468581
0.1378482237651637
0.7053921608904972
-0.10733940577298536
0.9146123114468581
0.1378482237651637
0.7053921608904972
0.14830596234291651
0.8512220920930098
0.22235479594232677
0.32023189004081887
0.3105003942472034
0.0940997445161372
0.8811822045210257
0.009697377491468744
1.0506406999856477
0.2843037676175124
0.9653951209288748
-0.3795493615647853
0.9482082914977897
0.024790783982778796
0.7541074587299107
0.009697377491468744
1.0506406999856477
0.024790783982778796
0.7541074587299107
0.024790783982778796
0.7541074587299107
-0.3795493615647853
0.9482082914977897
0.9553952887168409
0.9553952887168409
0.9553952887168409
0.9553952887168409
0.9553952887168409
0.9553952887168409
1.0526132427137855
1.0526132427137855
1.0526132427137855
1.0526132427137855
1.0526132427137855
0.966975060872343
0.8973510266427843
0.7402422611773656
0.7601307742527538
0.7601307742527538
0.7601307742527538
0.7402422611773656
0.7601307742527538
0.7402422611773656
0.7601307742527538
0.7402422611773656
0.7402422611773656
0.7601307742527538
0.7402422611773656
0.6583974763842606
0.8482677430665856
0.6583974763842606
0.8482677430665856
0.8482677430665856
0.8482677430665856
0.6583974763842606
0.6583974763842606
0.6583974763842606
0.6583974763842606
0.8971802884564104
0.8971802884564104
0.8971802884564104
0.8971802884564104
0.8971802884564104
0.8971802884564104
0.6179294645802179
0.6350338748498701
0.8147212038028488
0.6350338748498701
0.6379264346954374
0.7138067068331996
0.6307691721378541
0.622951848820464
0.6379264346954374
0.6529574110897408
0.622951848820464
0.6350338748498701
0.7138067068331996
0.6179294645802179
0.6487085100951773
0.8147212038028488
0.622951848820464
0.8147212038028488
0.6487085100951773
0.8147212038028488
0.7138067068331996
0.7138067068331996
0.8147212038028488
0.6379264346954374
0.6179294645802179
0.622951848820464
0.8147212038028488
0.6529574110897408
0.6350338748498701
0.6179294645802179
0.6487085100951773
0.7338253614964858
0.6487085100951773
0.6744406849437371
0.6529574110897408
0.6379264346954374
0.7461602348175734
0.7255606605816354
0.8484474611170948
0.7461602348175734
0.7461602348175734
1.1888266880706255
0.6996612919398999
0.7461602348175734
0.6996612919398999
0.9209278623400422
0.7255606605816354
0.7461602348175734
1.1888266880706255
0.7461602348175734
0.8077253082339313
0.6996612919398999
0.7461602348175734
0.6996612919398999
0.9519888913454767
0.9743273173120339
0.8484474611170948
0.8707774353616353
0.6427681421042662
0.7461602348175734
0.8484474611170948
0.7255606605816354
1.1888266880706255
0.7255606605816354
0.8172372831897396
1.005970677603126
0.5462439812055603
0.8289734986753968
1.0758836085054813
0.689823958432195
0.80838603451278
0.931457912854676
1.0336827581358559
1.372777714155119
1.3177319554771254
0.9691257055741282
0.9691257055741282
1.0855436573538175
0.6647988856909993
0.7913433601422996
1.0743331910156406
0.6839712248026214
0.7163151041728217
0.6113716088898993
1.0855436573538175
0.6113716088898993
1.372777714155119
0.5462439812055603
0.7163151041728217
0.7827189961891208
1.1742008758940792
0.7827189961891208
1.1742008758940792
1.1742008758940792
0.7827189961891208
1.1742008758940792
0.7827189961891208
0.7333202651788404
1.1130672414837257
0.7333202651788404
1.1130672414837257
0.7538444023522809
1.0633422887124633
0.7538444023522809
1.0633422887124633
0.7333202651788404
1.1130672414837257
0.7333202651788404
1.1130672414837257
0.48883312689102226
0.5215290127721901
0.5162636098236102
0.8416987304529432
